703 384
150 0.061899137 0.011794963 0.035472404 -0.028102843 9.1807146e-05 0.043175347 0.13182835 -0.05403242 -0.010250531 -0.013738659 0.004650568 -0.07681987 0.028599061 0.041989867 0.05082081 -0.028952623 0.1602457 -0.0032686542 0.0026761582 0.00089413684 0.047735047 -0.048229076 -0.033622585 0.015077525 -0.033558335 -0.012671455 -0.057690464 0.03712605 0.009503902 -0.06830256 0.029807173 -0.06823794 -0.045226227 -0.019228825 -0.012413611 0.072863534 -0.024776326 -0.027732667 -0.027770791 0.017103007 -0.008082287 -0.0069479966 0.025249625 0.0074055567 0.036612157 -0.0026550284 0.035203088 0.017829426 -0.008392214 0.017815448 0.054121833 -0.029515078 0.036621753 -0.06701133 -0.038348164 -0.029571475 -0.014184592 -0.0129567 0.026179282 -0.085695155 0.03890261 -0.06419714 -0.03752405 0.06630721 -0.070196144 0.040253554 -0.04197343 0.1102643 0.02276013 -0.023628682 0.041805424 -0.0024364623 0.026212139 -0.05615618 -0.01298124 -0.0059633814 -0.036518857 -0.021813514 -0.098454125 -0.09524693 -0.021835202 -0.06604951 -0.007828024 -0.035259284 0.024642503 -0.022251943 0.013716858 -0.028573982 -0.020134613 -0.0019103531 0.004429372 0.021987695 0.0024477302 -0.020704018 0.00018096397 0.029469242 -0.052549794 -0.08731204 0.0061340276 0.23470426 0.012312832 0.05244526 0.02247517 0.049561307 0.028489642 -0.020899683 -0.07006956 -0.022338878 -0.016412204 0.06263027 -0.06412808 -0.03582652 0.06520906 -0.034408767 -0.059492722 0.05442729 0.0014130768 0.044985116 0.040374715 -0.077632025 0.034161113 0.018004103 0.07204038 0.04042997 -0.04400536 -0.0604643 -0.012631612 0.053341277 -0.10215109 -0.017300898 -0.02068427 -0.022731576 0.03247912 -0.055540208 -0.008228931 -0.019018512 0.017042866 0.019533299 0.03119725 0.047424715 -0.033261754 0.06228351 0.04137061 -0.07350644 0.034655742 0.08510831 -0.0011562976 -0.051861703 -0.069551766 0.035386935 0.04763016 0.044758637 0.013130771 0.061636947 0.032037888 0.09103366 -0.030361885 0.04860946 0.050029013 -0.007881079 0.06278878 0.035557527 -0.008478407 0.037860967 -0.07194907 -0.07442601 0.012857414 -0.025604647 -0.0149063645 -0.08060217 -0.09281696 0.04248743 -0.0041244035 0.05894219 0.10960903 -0.040358495 0.00034762366 0.011999997 0.030628398 -0.006262788 -0.104243934 -0.043412197 0.028142607 0.0070332936 -0.008144745 0.01197172 0.012831277 -0.043980706 0.029642208 -0.0026602615 -0.0006615517 -0.08722123 -0.055010773 0.0410912 0.10174609 0.009176754 0.024615569 -0.053278998 -0.03697679 0.071748696 -0.011913887 -0.064809315 0.051874604 -0.04354708 -0.054279808 -0.00016725597 0.010479304 0.050508853 -0.058410887 -0.017991805 0.014220783 0.089292355 0.013850128 -0.060229722 0.059954643 -0.03822018 -0.04453266 0.02000812 -0.05521452 0.025277784 0.0248212 0.048629124 0.082272634 -0.07992134 0.057849422 0.0019934552 -0.040296216 0.055452675 0.04597366 -0.00059171114 -0.03224431 -0.017490527 0.05113654 0.04205255 -0.20071925 0.045312636 -0.010999134 0.011024219 0.018866014 -0.074027285 0.06548162 0.008167432 -0.021585133 0.004767475 0.030477347 -0.030141268 -0.06596021 -0.079091154 -0.04008377 0.06469427 -0.042314008 -0.1110161 -0.038517334 -0.031399805 -0.11292807 0.0067677004 -0.028938573 -0.023895254 0.026293118 0.08236849 0.09242546 -0.05429943 -0.09627445 -0.012634828 0.050733395 0.0029540134 0.06726069 0.08961148 -0.049157873 0.008875352 -0.044430632 0.01759826 -0.026117235 -0.058514975 -0.11155407 -0.019071523 -0.019585667 -0.083842546 0.030290825 0.01531422 -0.0001836979 -0.034413308 0.021687595 0.086731546 -0.03977475 -0.01143874 -0.09754722 0.088877335 -0.02094066 -0.009339376 -0.0009292758 0.087165475 -0.12183457 0.037232853 -0.007301911 0.03514564 -0.032324545 -0.044993788 -0.054542046 0.07871695 0.08303573 0.07240782 0.040850405 -0.0093475375 -0.039308533 0.028713934 0.023909504 0.004190393 0.064748876 0.014631402 -0.08630016 -0.018197116 -0.0031118095 0.059721343 0.019322852 0.061306663 0.04761114 -0.03783062 0.0069785463 -0.03483954 -0.019226763 0.10582836 0.0176311 -0.05093356 -0.039714985 0.007721749 -0.0020569868 0.05208174 -0.026291452 0.09837525 -0.036838423 0.00049921015 0.011775523 0.054597784 0.017614273 -0.036521714 0.03261116 -0.015581876 -0.026108356 0.0020109792 0.021890689 0.05245168 0.03799799 -0.052003592 -0.097087175 0.019165426 0.06905741 -0.03321181 0.075885825 0.07586533 0.060050584 -0.040312823 -0.006855238 -0.0028170797 0.09069421 -0.023750693 -0.034013603 0.0061317068 -0.030544285 -0.011534128 0.036819205 -0.04735572 0.040607847 0.05389511 0.07028482 0.089587405 -0.02418438 -0.0025839757 -0.025412291 0.022853263 -0.068057194 -0.107656814 -0.004044925 -0.02229099 0.036417335 -0.015252925 0.040993083 0.033696413 0.028974911 0.05707877 0.019180832 -0.04934189 -0.051387094 0.075636044
151 0.10702502 0.013350115 0.07000086 -0.030277796 0.015937526 0.053130616 0.11202626 -0.04126684 -0.0119553665 0.038302653 -0.022552533 -0.054643434 0.009303135 -0.011175525 0.059020683 -0.038706943 0.1568852 0.028077008 0.028617987 -0.02350657 0.037349876 -0.037654985 -0.087421164 0.0120090805 -0.084168606 -0.014443088 -0.074076846 0.07551794 -0.030979313 -0.034759384 0.0064198133 -0.03463718 -0.035547875 -0.012273994 -0.03395223 0.05462052 0.003102032 -0.055047143 -0.03281531 -0.032359354 -0.023734689 0.008267482 0.006246138 0.035578746 0.018566852 0.053525608 0.037381936 0.021484772 0.011847302 0.015354639 0.05275056 0.00954339 0.0393465 -0.06765429 -0.03665639 0.015283807 -0.00019301944 -0.028767338 0.05902798 -0.027646156 0.043064125 -0.056934297 0.01382812 0.037946578 -0.056767255 -0.0114589445 -0.06319557 0.12074615 0.046772316 -0.05514389 0.030910509 -0.02198879 0.02925619 -0.027296973 -0.03026605 0.02260573 -0.061286133 -0.053685922 -0.0704374 -0.10628319 0.012757439 -0.10357682 -0.025263464 -0.086622834 0.024599046 -0.084639914 0.025736332 -0.020964287 0.029694555 -0.0092099365 0.018694062 0.011085215 0.049225766 -0.02040761 -0.014308638 -0.0034666564 -0.01754862 -0.108232886 -0.0050568366 0.046582967 0.00057622476 0.0371319 0.05910111 0.07744433 0.027506573 0.004477451 -0.033100072 0.022703078 0.010192502 0.051314693 -0.052075982 -0.071108036 0.08751962 -0.062937275 -0.08479868 0.05914671 -0.018840704 0.052816063 0.050489355 -0.0793468 0.05660357 -0.011740136 0.05515064 0.03697683 -0.027962329 -0.0094700325 -0.03647721 0.037912883 -0.1011144 -0.028709741 -0.03349241 -0.010437196 0.03267669 -0.03944377 0.019297024 -0.003467219 0.019889561 0.03473461 0.05951142 0.029739467 -0.06277792 0.09771628 0.048727192 -0.06863872 -0.022670371 0.026463635 -0.0024681045 -0.04070229 -0.034118194 0.018108983 0.045136567 0.03631665 -0.0143371 0.07015602 -0.0037348503 0.06370186 0.026635677 0.036051556 0.04129609 -0.011045103 0.03990353 0.047328282 -0.007843345 0.022789376 -0.06225831 -0.060007375 0.010948732 -0.0076618446 -0.040457733 -0.10249756 -0.08260429 0.025957879 -0.047163054 0.012092912 0.08089531 -0.050267268 -0.014217621 0.026312001 0.017577842 0.016097438 -0.06316548 -0.03524989 0.030980986 -0.008133237 -0.007730237 0.012700583 0.028563032 -0.017330648 0.0418463 0.0024110738 0.013188511 -0.090684615 -0.024761118 0.014319976 0.1331295 0.045151968 0.018490553 -0.0027107056 0.025693363 0.060285766 -0.04816116 -0.073318236 0.048337456 -0.048576325 -0.10390375 -0.0045362823 -0.06354493 0.033412356 -0.055052567 -0.0016294994 -0.014926105 0.10911314 0.0014312 -0.062709324 0.07093949 0.03353643 -0.024622977 0.01873969 -0.014518138 0.034726847 0.06630831 0.075507246 0.0526536 -0.035965115 0.005168166 -0.041553594 -0.10472566 0.046330933 -0.0059021376 0.014593612 -0.0724904 -0.014070598 -0.029442621 0.030602906 -0.17868707 0.07293527 0.0441391 0.025211167 -0.021938132 -0.04971561 0.041238897 0.009164111 -0.027789438 0.013870727 0.028925478 -0.013644081 -0.12357901 -0.058356196 -0.027147038 0.014766252 0.008575338 -0.07749101 -0.0058386545 0.021116475 -0.10630816 0.006529333 0.021948392 -0.02740597 0.05473015 -0.00034471374 0.0455309 -0.07346963 -0.047145892 0.019197462 0.02553265 0.021641094 0.07590565 0.09495329 -0.007867447 0.061907202 -0.02190194 0.02480848 -0.006044674 -0.053578433 -0.08130768 -0.045935247 -0.074257575 -0.10998429 0.01280702 0.002171469 0.012723057 0.009884208 0.02395988 0.051877458 -0.045922287 0.0074738576 -0.07652244 0.058462832 -0.0040565534 -0.022947218 -0.009179855 0.05608993 -0.06468418 0.063505374 -0.009639759 0.01755704 -0.061986636 -0.088877924 -0.073652074 0.081563465 0.15588751 0.098376185 0.018854348 -0.015310718 -0.03270834 0.062760495 0.07029996 -0.0012159618 0.013470322 0.011393097 -0.14152102 -0.039027814 -0.0008387205 0.054891784 0.018556716 0.081798255 0.056878284 -0.017289907 -0.0019210796 -0.004502626 -0.0434027 0.08526379 0.04442738 -0.014174078 -0.007893543 0.042861417 0.036168363 0.08542671 -0.036340546 0.092042804 -0.032184884 -0.0054897345 -0.029309507 0.01117312 0.04451556 -0.032547694 0.02337559 0.055714577 -0.0114418175 0.03605932 -0.0052520838 0.059707798 0.04572526 -0.057855725 -0.11978817 0.03494599 0.046530988 -0.08352652 0.101814345 0.03604095 0.07130931 -0.008645191 -0.009392461 -0.008042368 0.07675198 -0.011048753 -0.027608242 0.03385819 -0.041271754 -0.117303476 0.037050307 -0.02036047 0.035656273 0.012230844 0.024385799 0.06565396 -0.033183612 0.0016355965 -0.01603821 -0.014817616 -0.07747975 -0.11001983 -0.0044797244 -0.018452208 0.04126322 0.012798305 -0.00076645653 0.011593237 0.029904842 0.030023582 -0.0090619745 -0.011146155 -0.10065344 0.06155191
179 0.11275289 -0.05666035 0.005047287 0.023356883 -0.09006128 0.029487247 0.112706356 -0.025110641 -0.008651193 0.030172668 -0.0147268325 -0.050861526 0.026858883 0.020549007 0.07899786 -0.04448004 0.15902978 -0.0036085004 0.068629354 -0.043206275 0.016708009 -0.080228455 -0.07468562 0.03466865 0.015097096 -0.009574465 -0.05446595 0.06966591 -0.02092704 -0.046015922 0.0032203146 -0.038511995 -0.042770468 0.0058685197 -0.0041509117 0.09247399 -0.026955808 -0.040857486 -0.029991884 0.033513393 0.03818695 0.002449786 -0.008516194 -0.035932384 0.050405405 0.026822092 0.0050974768 0.020392492 -0.005185467 -0.00859289 0.045225117 0.02495506 0.06857898 -0.06000999 -0.051436782 -0.035313863 -0.04812482 0.031169252 0.034249794 -0.022039033 0.08568728 -0.08590036 -0.009137507 0.0333173 -0.08748652 0.0039148657 -0.032168444 0.16749385 0.011734709 -0.018495092 0.011947977 -0.075264834 0.031881515 -0.068074636 0.014682067 0.047606923 0.0065368107 -0.059317455 -0.083087996 -0.026245428 0.027234048 -0.094352774 -0.068470925 -0.019691924 -0.009980282 -0.034988206 0.011662035 -0.06412094 0.0316531 0.021495832 0.037077434 0.022537304 0.023680225 -0.053614203 -0.010134424 -0.048133295 -0.05538275 -0.045093723 0.0068718726 0.08545997 0.0452751 0.101626806 0.11914719 0.035500675 0.040884357 -0.05617206 -0.027792472 0.07284871 0.024852386 0.036018983 -0.09637249 -0.013690449 0.10462124 -0.050112464 -0.06773701 0.04984239 -0.0014789584 0.043891255 0.0923264 -0.047838688 -0.03517623 0.04652643 0.0033044326 0.06140536 -0.118189454 0.042833343 -0.09219635 0.039472304 -0.08540617 -0.019158367 -0.05303475 -0.03187086 0.058511317 -0.062913716 -0.043438274 -0.031060388 0.036705144 0.033311922 0.05143282 -0.09114725 -0.018367209 0.061653815 0.12484962 -0.066203676 0.022055086 0.054730892 -0.010150193 -0.060813434 -0.082815714 -0.050444543 0.0614983 0.0675622 0.024692709 0.0037181268 0.004975904 0.07091955 -0.06505682 0.04063316 0.027832672 0.04654754 0.048364148 0.013401783 -0.009358128 0.020637784 -0.024074001 -0.04648233 -0.02456361 -0.04808933 -0.041164704 -0.056200244 -0.03407442 0.035931997 -0.010439962 0.0713243 -0.020668637 -0.006477512 0.008453437 0.0004271495 -0.0032767723 -0.02637639 -0.10390574 -0.0070475913 -0.009618243 -0.014864398 -0.014807112 0.026278729 0.048931632 -0.029515259 0.076218754 0.030201988 -0.050371684 -0.09762825 -0.046597037 -0.007935649 0.09027163 0.051999472 0.04106274 -0.03706973 -0.017533492 0.09170499 0.027485086 -0.046772864 0.043193907 -0.034678 -0.10448497 -0.004034927 0.018683681 0.058454137 0.042242423 -0.0031160696 0.012207409 0.09270591 -0.008854554 -0.011703145 0.120067105 -0.09899324 0.023142166 0.07348577 -0.120531045 0.037372775 0.017062651 0.053953618 -0.0025719272 -0.051204957 0.04076044 -0.03219192 -0.023171272 -0.00014003087 0.023059506 -0.04026304 -0.08237404 -0.051493764 0.056889854 0.053582232 -0.13574523 0.048579063 0.06534069 0.015668634 -0.009041115 -0.0055438206 0.052422114 -0.020337462 -0.058159888 0.02410471 0.030318385 -0.028854543 -0.024001991 -0.017188642 -0.023251956 0.041277234 0.036358364 -0.06072362 -0.033051625 -0.029482564 -0.12086832 0.036441293 -0.019652134 0.0003590278 0.013905174 0.06724842 0.088497125 -0.05756979 -0.0838072 -0.008139534 0.0603358 0.02178711 0.005607827 0.06323534 0.050666496 0.029006258 -0.02352409 -0.0053139743 -0.060591917 -0.09588443 -0.05930675 -0.05026126 -0.06455542 -0.0016092726 -0.009906188 -0.01011247 0.020108134 0.018480217 -0.025727352 0.018525539 -0.067779735 0.006556219 -0.08748119 0.089565955 0.026652174 0.004005625 0.023415277 0.052342147 -0.05124244 0.036075782 -0.018449225 0.0050382805 -0.034599375 -0.05646481 -0.12293357 0.052687928 0.042643726 0.047121726 0.001523027 0.0038910876 -0.007497186 0.068396725 0.049013164 -0.033732027 0.06542341 0.030347157 -0.031146063 -0.008268944 -0.027353164 0.043219645 0.008465941 0.01626102 -0.005360053 -0.014218002 0.034077223 -0.026185622 0.0020236704 0.044685617 -0.012101079 0.0074912445 -0.029565929 -0.03771066 0.01701498 -0.00865407 -0.023015592 0.11861993 -0.08659667 0.033914126 -0.05755498 0.037275508 0.0121383965 -0.042964343 -0.0012617946 0.009780159 -0.009814077 0.029524323 -0.0012488978 0.040595334 0.09516756 -0.013283998 -0.055136662 -0.022547256 0.016771313 -0.026748184 0.071702525 0.015920052 0.06328929 -0.016864426 0.00978811 -0.016438099 0.111276135 -0.0197634 -0.027471889 0.0009599314 -0.08461836 -0.024078188 0.0013420058 -0.12049415 0.0015731596 0.025944429 0.059792303 0.07781315 -0.005204786 0.09134393 0.012698235 -0.00690972 -0.057152923 -0.038149286 0.03556911 -0.04422643 0.014868175 -0.03314307 -0.0020588997 0.033671975 0.061166298 0.0068048607 0.017687706 0.0014303054 -0.043143805 0.01827147
181 0.07534031 0.021068789 -0.022822307 -0.039269485 -0.06593748 0.024241844 0.064816445 0.015065995 0.01769321 0.025467722 -0.047806382 -0.007163908 0.008117413 -0.039275635 0.052504428 -0.045245662 0.093204305 -0.013930856 0.041112505 -0.04870158 -0.01635908 -0.07920432 -0.106582545 0.00094071415 0.015297907 0.039297346 -0.032737963 0.06316146 0.034806956 -0.0041806907 -0.04345777 0.034732167 -0.07145905 0.028642276 -0.03037299 -0.04787206 -0.09545803 0.0219875 -0.07915232 -0.02529234 0.06590159 0.010960493 -0.029893609 0.048171308 -0.029917883 -0.015715577 0.01508449 0.047709413 -0.002026869 0.008759536 0.0783841 0.046994176 0.085271105 -0.022363156 -0.051231474 -0.057099607 0.00256132 0.037974734 -0.008618086 -0.0012334686 0.07570367 -0.040367655 -0.0046107853 0.044255845 -0.09690546 0.0054440442 -0.0143461935 0.11507726 -0.02178926 -0.03224573 0.072320655 -0.062711544 -0.03544093 -0.0395701 0.010446721 0.045679715 -0.009296517 -0.121484645 -0.027954707 -0.01279194 0.028018177 -0.07554242 -0.07135762 -0.11011743 0.034923654 -0.031447675 0.0034324585 0.021159217 0.09403781 -0.04073005 0.009316504 0.05852368 -0.03776533 -0.03765684 -0.0084959185 0.006887512 0.02771148 -0.04046258 -0.06445307 0.07097104 0.0966449 0.08227224 0.031087892 0.037740428 0.047770128 0.01913203 -0.00033790007 0.05049367 0.03184514 0.0080752745 -0.09567611 0.027934508 0.123145916 -0.06230265 -0.02893205 0.14319524 -0.06867558 0.09480737 0.033452846 -0.051957164 0.03702643 0.057588447 0.015890338 0.041082885 -0.050480578 -0.003037109 -0.08883507 0.050024725 -0.15180777 -0.035385873 -0.035717804 -0.054084677 0.056781456 -0.06396446 0.03476984 -0.039678093 0.0044511757 0.047080886 0.027978567 -0.0073943106 -0.0338742 0.104983084 0.08089746 -0.041228633 -0.011809612 0.039958544 0.039758574 -0.062129244 -0.010193644 -0.052958284 0.042074278 0.02268159 -0.056190543 0.051843293 -0.057243943 0.050534993 0.008894556 0.054766968 0.013678069 -0.022898203 0.011189727 0.025224749 0.046644446 0.07318604 0.032844737 -0.044402786 0.013945715 -0.013588683 -0.07416891 -0.038592316 -0.08450625 0.007664814 -0.05737985 -0.00093618274 -0.025523074 -0.039127547 -0.025498817 0.019664114 -0.033670966 -0.06438149 -0.060955435 -0.02092774 0.03341201 -0.0094226245 -0.012804795 0.00037418536 -0.02322356 -0.016879706 0.05704757 -0.045335475 -0.07098741 -0.0045919367 -0.09333428 0.02089494 0.066990286 -0.015979154 0.056098763 -0.023684373 0.057860706 0.088198364 -0.01692608 -0.044314325 0.08499677 -0.033246327 -0.060386613 0.027772762 -0.012991337 0.02487935 -0.0043965275 -0.025657821 0.0059772064 0.113815196 -0.031846296 -0.034660652 0.105369054 -0.058582086 -0.0028130289 0.037415527 -0.0531927 -0.011141577 0.043979436 0.05339992 0.080380514 -0.04087135 -0.048826024 -0.028738843 0.020680945 0.011892454 0.037688214 -0.039315715 -0.0049227765 -0.056987237 0.06533192 -0.010487335 -0.1318767 0.029940683 0.06722848 -0.015306563 0.028304042 -0.061485995 0.05842394 0.042410146 -0.009285891 -0.05482094 0.04251797 -0.06441037 -0.16731179 -0.042592525 0.05378759 0.005097454 -0.02175723 -0.1156996 -0.048563037 0.028607478 -0.13197277 0.02356433 0.04783026 -0.011047997 -0.02731167 -0.012758742 0.12220804 -0.04177387 -0.05959446 -0.09953902 0.029285034 -0.0007564409 0.005470503 0.08440464 -0.01231302 0.08504453 0.035958853 0.051777415 0.053141836 -0.026296722 -0.03976941 -0.010513557 -0.019332344 -0.03728155 -0.021499664 0.028339146 0.04801838 0.0056356397 0.035697166 0.03065506 -0.04286235 0.03442472 -0.11498074 0.06717646 0.04219698 0.0004805717 -4.7937458e-05 0.03303652 -0.07560014 0.04016305 -0.00633268 0.026361743 -0.057903167 -0.014379651 -0.06692411 0.042304248 0.0064236857 0.10207726 -0.009658919 0.017646305 -0.00032528368 0.014005377 0.0031535912 -0.01211416 0.016793704 0.06542379 0.040876552 -0.04516458 -0.028217578 -0.017836383 0.023711314 0.033151437 -0.033349082 -0.018784018 -0.0005437586 -0.01860883 -0.025317147 0.038518332 -0.033110306 0.055405255 -0.009907661 0.057212118 0.074727766 0.00025591953 0.001551528 0.08211581 -0.008619765 0.030848715 -0.004710102 -0.036578376 0.035405666 -0.032236654 -0.020595305 -0.011365656 -0.017689241 0.012105899 0.008219724 0.05550538 0.0522539 -0.07458589 -0.071202405 -0.0034961828 0.059108067 0.025771864 0.109977715 0.07237424 0.017045831 -0.054909114 0.07762731 -0.050881784 0.046067644 -0.026761824 0.0034853336 0.008661564 -0.009339164 -0.061440192 -0.038224585 0.003111408 0.045991223 0.009224325 0.08222897 0.06268554 -0.061463665 0.04350933 0.052606244 -0.09795531 -0.05125359 -0.05643721 0.06525423 -0.1045069 0.054266676 -3.1586467e-05 -0.022592988 0.03742267 0.0258487 -0.062774286 0.0113792075 0.00021515937 0.009596018 0.0070069833
153 0.08292331 0.05248298 0.046360053 0.021565393 -0.015726736 0.019078046 0.010418174 0.0031178 0.0011390112 0.019991104 0.016516877 0.0027877798 0.02275572 0.057505913 -0.030285578 0.015799293 0.064934425 0.056991264 0.06696192 0.010432644 0.058474943 -0.03270737 0.007042591 0.032861695 0.0040288568 0.0137614915 -0.058148243 0.042727757 0.011445234 -0.061550166 -0.038901296 -0.04915984 -0.10937321 0.02466639 0.04823375 0.11194824 -0.0037081551 -0.028270144 0.01648443 0.012716572 0.033992194 0.02131779 0.04970763 0.0010211233 0.040022314 0.054683756 0.063092776 0.012525457 -0.013384462 0.018176598 0.050804164 -0.051161792 0.045690745 -0.06671385 -0.017922178 -0.02950151 -0.016677616 -0.015899768 0.016969256 -0.044321064 0.072030924 -0.031081853 -0.064481005 -0.023709765 -0.062987804 0.05183632 -0.05883421 0.056396518 0.025960887 -0.07673468 -0.0154215265 0.03098416 0.008463012 -0.039292667 -0.028794428 -0.011410227 -0.042292178 0.011719337 -0.1232299 -0.11237104 0.039129145 -0.107643925 0.036138445 -0.030323245 0.041929856 -0.05206528 -0.0070436615 -0.036646057 -0.0068033426 0.009696675 0.109604865 -0.04688517 0.029518578 0.029465921 0.008908238 -0.00158996 -0.012102451 0.0004250426 0.09253395 0.038213596 0.08591094 0.061668333 0.04182477 0.026325088 0.008220704 0.006141563 -0.038097203 0.004262144 -0.0012649278 0.035187315 -0.021786898 -0.0766376 0.048924524 -0.039005447 -0.07425616 0.026383767 0.0033639655 0.047589313 -0.05139373 -0.1050896 -0.020269014 -0.079354085 0.044883538 0.062033832 -0.061890695 0.0009815252 0.02168362 0.01377761 0.0008188923 0.01879809 -0.07493383 -0.009469087 0.013503754 -0.050881367 -0.051762596 -0.022086546 0.02137265 -0.037807755 0.06328167 -0.029729936 -0.032840952 0.0026617274 0.0023629507 -0.064535476 0.021101452 0.009478906 -0.021132333 -0.012021292 -0.044142302 -0.0063222884 0.0427249 0.0573992 0.024809167 0.03176906 0.0044870074 0.054885384 -0.038753193 0.038451336 0.034234375 -0.031042721 0.03661465 0.026305694 0.007433313 0.049249414 -0.014881702 -0.082867935 -0.013320206 -0.06510649 -0.007076613 -0.058189742 -0.10651525 0.046891425 0.039454993 0.033190835 0.054617774 0.0046850936 0.06047014 -0.010892301 0.03323976 -0.0132745635 -0.15980098 -0.05778177 0.027527079 0.030649304 -0.01956794 0.024283791 0.04903106 0.0053973775 0.14145674 0.029285487 -0.0019068698 -0.03796233 0.056717224 -0.025225049 0.043450743 0.07784897 -0.0015842654 -0.0042234496 0.016591938 0.07450961 0.041532125 -0.036707625 0.061440315 -0.019853331 -0.09965092 0.022559345 1.5148024e-06 0.06279328 -0.045748368 0.008964163 0.0044050845 0.069356084 0.023732595 -0.06610223 0.07302216 -0.06549132 -0.09215942 0.0018558766 -0.06908534 0.064114206 -0.021769216 0.018121647 0.016735226 -0.03858931 0.033665817 0.004562404 0.01966166 0.043413714 0.010674932 -0.009742313 -0.007889554 -0.037734374 0.013816882 0.047920953 -0.124736175 0.013680278 -0.021389978 -0.023386806 0.03442607 -0.043753035 0.045116927 -0.0077872914 -0.08211097 0.021703515 0.01868512 -0.029361371 -0.08502378 -0.04472053 -0.018314311 0.04736732 -0.052378222 -0.11041787 -0.036374748 -0.029959518 -0.07623506 -0.0038913453 0.016025497 -0.03325567 -0.02867615 0.08009655 0.081169136 -0.047943898 -0.045628376 -0.0008709801 0.05534378 0.030584332 0.07741047 0.033172082 0.0054007773 -0.004535114 -0.08449134 0.045719907 -0.057813827 -0.034551933 -0.060044155 -0.0051439656 -0.03230034 -0.091978386 0.06965619 0.0061989874 -0.048514508 0.0336341 0.01143209 0.010357493 -0.108995676 -0.018189004 -0.10971716 0.10239252 0.00898169 -0.031767275 0.00087503734 0.113221526 -0.15034552 0.06734874 -0.06846138 -0.03158967 -0.07080629 -0.053470828 -0.009005525 0.014548097 0.11634455 0.101681225 0.022549272 -0.02052095 -0.005769921 0.04921326 0.014286803 -0.022273103 0.094880626 0.01948458 -0.11549348 -0.108860984 -0.00073719973 0.04504204 0.024055772 0.01749348 0.050317407 -0.07656628 0.025828775 -0.030192906 -0.029333338 0.116059706 0.014392879 -0.036388706 -0.00027150282 -0.039445058 0.08976429 0.13121042 -0.029566748 0.12259562 -0.06998292 -0.04137139 -0.047363333 0.03574529 0.035511106 -0.059556298 0.026820006 -0.014050704 -0.017834246 0.01564283 -0.027098324 0.013707356 0.09862921 -0.061059684 -0.038367838 -0.008999538 0.037281215 -0.07818757 0.061298482 -0.05976662 0.034793377 0.03089313 -0.016927848 -0.016104901 0.065860055 -0.044570927 -0.050350294 0.01350395 -0.04524723 -0.07216426 0.09082841 0.004578038 0.067662895 0.07677958 0.100723274 0.08973403 -0.0068886657 0.030234665 -0.0072819134 -0.0006315298 -0.0700353 -0.08202384 0.04912238 0.01626246 0.014728583 0.015364037 0.0021394815 0.003118244 0.022270268 0.030692682 0.030374823 -0.03611456 -0.083008006 0.005468637
154 0.12077204 -0.08787139 -0.014631564 0.016589932 -0.027367948 0.01668235 0.027537642 -0.0018006786 -0.029460229 0.030165352 0.022234788 -0.044784006 0.0757002 0.04729856 0.026758134 -0.019458402 0.14155495 -0.014614841 0.038413186 -0.03973772 0.0108667705 -0.06402512 -0.075151525 0.006381644 0.04035027 -0.020798076 -0.03893708 -0.0031674781 -0.07558786 -0.056218043 -0.025561238 -0.026740286 0.01601316 0.05908351 0.013641526 0.015495413 -0.028592804 -0.015585396 -0.008387238 -0.00088799477 0.023723155 -0.043151803 -0.038701143 0.009197519 0.0499849 0.008242004 0.06456927 0.06945396 -0.01580837 0.024936995 0.015494464 -0.00260728 0.035559062 -0.07289003 -0.08024153 0.0043515037 -0.012525598 0.0017836193 0.07158982 -0.07487102 0.08148055 -0.10552981 0.022542138 0.04489797 -0.05230363 0.019802809 -0.00047309365 0.081031434 0.035048313 -0.02909221 0.0032537112 -0.05901787 -0.012040516 -0.053615928 1.7750135e-05 0.0460462 0.048430417 -0.0118506085 -0.049333476 -0.0072697084 0.06758069 -0.043894418 -0.04148118 -0.016714869 -0.012533851 -0.08592188 0.011551524 -0.08861864 0.04756924 -0.07978253 0.06641486 0.007934505 -0.03865162 -0.03493416 -0.077355064 -0.06302353 -0.017096879 -0.070656836 0.04700237 0.009476558 0.022867935 0.042021085 0.14146481 0.019781198 -0.0036118017 -0.035334557 0.020493723 0.061604343 0.022578627 0.06553932 -0.07188606 -0.018077858 0.057935663 -0.06758894 -0.05746704 0.05090423 -0.038625486 0.11699295 0.062180236 -0.021834223 -0.04462711 0.029101048 0.027060095 0.015812175 -0.04294455 -0.017484827 -0.0658824 0.014499206 -0.112640336 0.009118668 -0.025940774 0.024257865 -0.044087864 -0.07601485 -0.0051650004 0.0022201107 0.053711202 -0.008515567 0.021300223 -0.024050102 -0.027297676 0.096532814 0.02495248 -0.039643895 0.050999865 0.06535872 -0.041427244 -0.04988812 -0.06080537 0.045904305 0.04196439 0.026456056 0.03580362 0.03875244 -0.014902944 0.06805843 0.049555488 0.029641435 0.061235428 0.03453654 0.018012416 0.0884492 -0.025556846 0.102333374 -0.07315918 -0.04890994 0.07956484 -0.031287644 -0.08147652 -0.013118114 -0.043857794 0.046271294 -0.023888566 0.06849731 0.02991013 -0.011742848 -0.008293847 -0.010207449 -0.0007051213 -0.013101572 -0.11649356 0.04207715 0.024641478 -0.0142986225 -0.010841855 -0.048703376 0.05611903 -0.062307257 0.07786824 -0.04157674 -0.075987354 -0.060059283 -0.080143765 -0.07840838 0.051909655 0.04601379 0.028539887 0.044863846 0.011482148 0.117857866 0.00023092118 -0.027192306 0.01369753 -0.060981262 -0.05994333 0.034809854 0.018212454 0.060145408 -0.073484816 -0.025418352 0.013559119 0.076187134 -0.007898691 -0.03523579 0.05393252 0.007300232 0.023908481 0.050675556 -0.04650528 0.032089286 -0.03903027 0.061821003 0.05193966 -0.046845358 -0.004577893 -0.07057663 -0.020684596 0.08017518 -0.021268789 -0.015958235 -0.0336808 -0.019941006 0.037131645 0.026238067 -0.1553101 0.061439216 0.037805267 0.012377673 0.04447972 0.04591616 0.13925293 0.013368093 -0.051869374 -0.015236144 0.058187164 -0.05880026 -0.088630535 -0.08452952 0.014805322 0.07201318 0.0014601881 -0.09621923 -0.013772599 -0.027515251 -0.13512817 -0.010753891 -0.029160121 0.027531754 0.0148766255 0.011321059 0.027199296 -0.08316908 -0.055649422 0.012460741 0.023351908 -0.0008081896 0.022360079 0.067238666 0.052719176 0.028792523 0.042784214 0.021207703 -0.026032913 -0.0757096 -0.10858177 -0.0012510885 -0.032176554 -0.040058628 0.001635413 0.025618559 0.016402049 0.031907894 0.0022216886 -0.019325225 -0.050765518 -0.029528536 -0.039012104 0.027957292 -0.0696296 0.0075509367 0.06150642 0.011373086 -0.063408434 0.038584772 -1.354994e-05 0.003558246 -0.007615994 -0.13616158 -0.08983057 0.0802752 0.08426004 0.13495123 -0.028600229 -0.037125193 -0.0030162486 0.05678986 0.020917382 -0.025051104 0.085499234 0.057909366 -0.04472738 -0.09833638 -0.017197238 -0.0051288325 -0.032556944 0.035883088 0.0533597 -0.0716608 0.0023071356 -0.03497381 -0.02886441 0.040874418 0.015634296 0.01936123 0.029589768 0.008107116 0.0070488686 0.12384962 0.0071655316 0.1562088 -0.06969389 0.00094924105 -0.08757085 -0.011426456 0.018472701 0.0024545114 -0.013133505 -0.013508441 -0.013417508 0.013745345 -0.01281199 0.072007425 0.047847446 0.010216135 -0.0405093 0.029564597 0.028702544 0.015533367 0.053028803 -0.02175983 0.015769135 -0.0006137928 0.0022640491 -0.009357478 0.051526695 0.0047901478 0.05918408 0.025122013 -0.036078986 -0.029357266 0.06618522 -0.069928475 0.032749873 0.06971285 0.07769935 0.023278689 -0.0053651403 0.040003818 -0.0031556296 -0.059677504 -0.09026254 -0.050819777 0.015272168 -0.0030666275 0.032046255 -0.06279208 0.011469325 -0.0073126275 0.03674373 0.055392917 -0.05517668 -0.06597564 -0.060955986 0.0168524
155 0.1074639 0.023233876 0.02606828 0.04917247 0.0055607776 0.013205582 0.04146243 -0.039505273 -0.007323085 0.051149465 -0.025593678 -0.084365495 0.02080292 0.09713695 -0.010363159 -0.041152533 0.08142857 0.024571525 0.025771685 -0.018423462 0.008509116 -0.03566649 -0.0039471756 0.0007164185 0.026619049 -0.027756281 -0.10924138 -0.00024298548 0.018054653 -0.058017183 -0.043416522 -0.10605024 -0.082193285 -0.00324215 0.005748657 0.0955427 -0.02145672 -0.023912717 -0.048092958 0.031016093 -0.0247665 0.033275824 -0.014064399 0.015067762 0.08239499 -0.00097181794 0.06624557 0.0056785797 -0.0496856 -0.0027843863 -0.015404262 -0.038791712 0.010456957 -0.0386264 -0.04719841 -0.027557101 -0.022787336 -0.0025105404 0.030981112 -0.07815764 0.043220527 -0.029538186 -0.040454954 0.024283245 -0.037699994 0.037964124 -0.0043242886 0.14960355 0.017287726 -0.055842035 0.02174627 -0.006102409 0.008195111 -0.012295654 0.009872962 0.023791198 0.008787899 -0.008224629 -0.081204645 -0.06468544 0.02627677 -0.08760782 -0.029490357 -0.01592099 0.0040614386 -0.030928418 -0.031615335 -0.06947346 -0.015090637 -0.033940677 0.062948465 -0.06341919 0.0011723732 -0.008777319 -0.007083504 0.011872695 0.018551402 0.017493872 0.08419992 0.060922068 0.03717636 0.035327252 0.07446212 0.021297656 -0.0053640185 -0.008678422 -0.022749938 0.007280897 0.00044835123 0.04137411 -0.04836468 -0.01627588 0.06259269 -0.07922418 0.00077225023 0.07705726 -0.030273864 0.071747616 0.017487995 -0.043946877 0.0060654315 0.013331893 0.032072455 0.021654205 -0.06281376 0.01051728 -0.0039113965 0.03709527 -0.038399693 -0.012064635 -0.054796115 0.0041277385 0.028627612 -0.047026165 0.02794659 0.051338404 0.021812472 -0.035167836 0.055031702 -0.022086 -0.04519454 0.03355163 0.017935297 -0.005648304 0.032047797 0.04655731 -0.023761611 -0.023809658 -0.060253184 0.02326379 0.050923616 0.06444503 0.03863389 0.061883923 0.022167176 0.04539926 0.0028635412 0.070625655 0.018352827 0.0023555236 0.044367947 0.042635135 -0.04449197 0.058385964 -0.09812849 -0.025777685 0.05302004 -0.059967987 -0.05606734 -0.045085706 -0.0935456 0.03527754 0.014224463 0.08562974 0.06643766 -0.05990577 -0.027456522 -0.017985133 0.052026138 0.039066836 -0.10322682 0.037787545 0.06398857 0.024770232 0.022454984 0.016235279 0.06887087 -0.0018830238 0.14098342 0.056355048 0.0045723757 -0.03675622 -0.028595082 -0.042767387 0.1089772 0.06677988 0.047446802 -0.029475559 -0.059976723 0.1060143 0.0219227 -0.05552391 0.029000591 -0.0037108837 -0.061701287 -0.001205051 -0.027642254 0.08529564 -0.09589803 0.024754178 0.0039048407 0.021342231 -0.0052007576 -0.06897823 0.05516092 0.019899417 -0.041893996 0.012229743 -0.061565902 0.030455595 -0.014551155 0.0292289 0.027310926 -0.04337368 0.093521595 -0.04842639 -0.03966018 0.016135693 -0.021843476 -0.016938731 -0.08505775 0.01582841 0.031716134 -0.012384927 -0.16022368 0.039387397 -0.011827292 -0.003333663 -0.0056770057 -0.0075169746 0.057223216 0.005618772 -0.09929921 0.034727454 0.043362252 0.025791826 -0.06169638 -0.07349553 -0.054350685 0.021431591 0.023109026 -0.112439156 0.010766008 -0.055164255 -0.071711496 -0.07239668 -0.042728312 -0.04023497 0.046135873 0.03158056 0.091500245 -0.067836985 -0.06688859 0.003926983 0.019429095 0.04089194 0.05951005 0.08470463 -0.008735143 0.00021058055 -0.051665194 -0.013154012 -0.012078909 -0.0699208 -0.105036795 -0.070896275 -0.008089677 -0.10234052 0.08039416 -4.5167522e-05 -0.020418713 0.055081867 0.010093214 0.0420955 -0.046914894 -0.032082666 -0.083497606 0.046991784 -0.068076245 -0.0065682638 -0.05704542 0.100862116 -0.104069024 0.041971862 0.038637534 0.0055365856 -0.0661796 -0.05086757 -0.049513232 0.0834358 0.11239268 0.12806903 0.0006632711 0.00548474 0.018093197 0.061988447 0.048709955 -0.0058308765 0.08031189 0.019578014 -0.054653518 -0.07505197 -0.004076521 0.00833417 0.03497895 0.04361018 0.08935131 -0.063646846 0.06788511 -0.016391367 -0.025419114 0.085900284 -0.001105949 -0.055718083 -0.027813494 -0.021219939 0.012288801 0.14171977 -0.07729139 0.10120084 -0.08013115 -0.020214567 -0.06485818 0.054008525 0.024412919 -0.057755057 0.0048284363 -0.013256819 0.000107093605 0.0128866555 0.016030187 0.0097195115 0.07209264 0.003112321 -0.070600495 -0.011362469 0.019327626 -0.08338492 0.04553883 -0.01710263 0.0117580695 -7.232752e-05 -0.028917216 -0.0013335046 0.08432557 -0.020348037 -0.013498336 0.015675232 -0.06243893 -0.050229467 0.07711701 -0.10078503 0.06144215 0.020158745 0.06376539 0.060956847 0.005390259 0.063250504 -0.00769906 0.01039846 -0.103116706 -0.104564875 0.009951878 -0.06907154 0.04225251 -0.020978685 0.021993415 0.015156832 0.017489243 0.06268538 0.05756575 -0.06763358 -0.049298428 0.038856126
158 0.05665122 -0.07362238 -0.0027397242 -0.023142487 -0.06769046 0.060046602 0.055256486 -0.05843668 0.03729758 0.06942606 0.017452553 -0.019198993 0.0034307912 -0.0033514474 0.12946859 -0.03570236 0.12412843 -0.014632867 0.027243778 -0.0025327757 -0.0023567902 -0.07856363 -0.05706009 0.027846694 -0.017371872 -0.038648743 -0.0030751876 0.07496252 -0.029864911 -0.016698448 0.0008025268 -0.017932657 -0.020964608 0.027669981 -0.054165374 0.08266777 -0.07117164 -0.028615344 -0.06043904 -0.031989366 0.00371009 -0.0062458324 0.032897417 -0.041485623 -0.012891842 -0.020287637 0.003944522 0.007853745 -0.011227016 0.023718238 0.051969588 -0.014412427 0.042008985 -0.007890396 -0.03237597 -0.056553833 -0.007001579 0.07619421 -0.008444085 0.007673112 0.0455946 -0.10183237 -0.014925222 0.044923957 -0.08831655 0.027727108 0.00087396253 0.09455428 0.01389039 -0.02532972 -0.028820168 -0.063417256 0.021966564 -0.03685834 0.066051506 0.076175325 -0.0068447525 -0.06570237 -0.031657346 -0.046231218 0.06672783 -0.09475163 -0.08955229 -0.023070356 -0.005074899 -0.054566324 0.020695724 -0.07768966 -0.01907067 -0.024582863 -0.048338294 0.05775509 -0.03891565 -0.057034597 -0.022469506 -0.037489276 -0.013648236 0.05621111 0.018649897 0.10397767 0.032389574 0.08643293 0.045019608 0.07540197 0.0106648635 -0.004121903 0.0067928354 0.06891467 -0.012606746 0.054823786 -0.10422875 -0.0033738716 0.06441088 -0.067687586 0.051535822 0.07747013 0.009381089 0.10644266 0.08372483 -0.035051122 0.006450219 0.055081043 0.043678008 0.06761838 -0.09308128 0.022478716 -0.045100335 0.023615506 -0.09596137 -0.007226292 -0.082006596 -6.805988e-05 0.051688828 0.024813797 -0.009659615 0.001104366 -0.0107042175 0.035959702 0.05241634 -0.0052273227 -0.014797001 0.060653005 0.08141545 -0.030572664 0.07268615 0.010938233 -0.039934855 -0.06578747 -0.1020089 -0.010475681 0.061222333 0.021440301 -0.010330253 0.038633242 0.016772471 0.0424577 -0.0068754326 0.028235506 0.04167276 0.016458333 0.06692232 0.009809575 0.019928528 0.034661587 0.029679513 -0.08498326 -0.030706132 -0.004605584 -0.04631874 -0.031514056 -0.121058315 0.015577994 -0.04136898 0.10899758 -0.028000195 -0.058989827 0.04425143 0.057001892 -0.04463778 0.0047141793 -0.08160153 0.0305039 0.019453947 -0.02794242 -0.040759698 -0.007330852 0.056504667 -0.05750863 0.119400084 0.0132222595 -0.041267917 -0.07298076 -0.03661961 -0.010789671 0.113072895 -0.0361266 0.09870464 -0.059748087 -0.0062863757 0.048435114 -0.0113133425 -0.055528197 -0.00066678476 -0.000114310285 -0.056042816 0.040420182 0.035846718 0.07705859 -0.01194033 -0.010853489 0.010542068 0.05380667 -0.0037416045 -0.03498196 0.11315047 -0.060194537 -0.035468217 0.042956125 -0.07697903 0.041977186 0.027615447 0.049800426 0.044521373 -0.05561533 0.069282316 0.010718096 -0.07852621 0.022986589 0.03624786 -0.009176362 -0.08251536 0.015216337 0.07376669 0.04056584 -0.07626961 -0.03135552 0.027205715 -0.0079766335 0.012048245 -0.056528676 0.06805537 -0.017198687 -0.023255702 0.041161116 0.028375128 -0.013357562 -0.048630323 -0.0626121 -0.056185827 0.042801667 0.03864027 -0.10466609 -0.09445665 0.03395946 -0.065487094 0.016434375 0.023107506 0.011052442 0.018517895 0.046002045 0.04100606 0.01434414 -0.12089071 -0.030378418 0.029013624 -0.014025115 -0.04795086 0.07210149 -0.042664025 0.00047787864 -0.063931085 -0.03638208 -0.021575136 -0.07098618 -0.068822786 -0.102283575 -0.028117102 -0.097690076 -0.04216678 0.025624618 0.009097417 0.03058675 0.032309934 0.08987846 -0.038622316 0.02075519 -0.1011417 -0.027823268 0.055978645 -0.015338221 -0.015205138 0.05327195 -0.07720604 0.030034162 0.0035704446 0.0078100157 -0.048091073 0.024538286 -0.14144965 -0.0068253153 -0.008055483 0.06927561 0.016639156 0.005201326 0.0023154735 0.05839001 0.0072632325 -0.039694127 0.04660108 0.041579224 0.052222468 0.031534456 -0.01611511 0.03596372 0.111541554 0.0683379 0.0779365 -0.057709325 0.031021753 0.00078785256 -0.028536933 0.0036293007 -0.01462533 -0.022598911 -0.015514388 0.01297716 0.03419144 -0.02556177 -0.023617765 0.11922819 -0.039068058 -0.028276367 -0.0012757302 0.029784314 0.058808092 -0.0344666 -0.031840038 0.020042341 -0.035135254 -0.013021145 -0.025597217 0.056736186 0.041748565 -0.063736 -0.06877899 0.03394354 -0.0070758876 -0.04237812 -0.004506729 0.007515038 -0.003990206 -0.013330507 0.004145231 -0.049079943 0.024778195 -0.010413215 -0.021964654 -0.10257822 -0.06224083 -0.012495058 0.017235812 -0.09896214 0.06306235 0.058026828 0.11317837 0.09891278 0.07106139 0.015145796 -0.03452141 0.049184054 -0.06536396 -0.027736079 0.012039237 -0.054093722 0.027029274 -0.06726369 0.015661325 0.1393153 0.0634396 0.039586138 -0.01508416 0.013852776 -0.014678899 -0.005615941
159 0.09816424 0.031282194 0.06339785 0.0044373935 0.033154383 0.038359333 0.102687135 -0.074023895 -0.044512153 -0.0027940872 0.031471096 -0.08069793 0.037645023 0.059073374 0.06401395 0.020219812 0.107727796 0.01562671 0.016447412 -0.0010229556 0.02816728 -0.052297845 -0.019920345 0.024004888 -0.04344353 0.028400028 -0.056610063 0.05519196 -0.008660228 -0.03416347 0.05064756 -0.06826048 -0.048556462 -0.0021535538 -0.011546809 0.0849451 -0.018572198 -0.043590605 -0.029649898 0.032011088 -0.027069816 -0.03291304 0.038638923 0.01582267 0.02959643 0.055526137 -0.005019475 0.01471556 0.005721751 0.014511776 0.104012236 -0.04705637 0.016657952 -0.079841994 -0.013861745 -0.030204242 -0.029574158 0.005123272 0.03399355 -0.0005037535 0.058511015 -0.052140515 -0.04766922 0.060673624 -0.0508944 0.061028007 -0.05359252 0.10198436 0.009991373 -0.0673334 0.015020765 0.04148269 0.042057797 -0.0766525 0.009051185 0.0028609438 -0.061039403 -0.016841134 -0.12495247 -0.113398366 0.011570152 0.0035061294 0.029111454 -0.01684678 0.042431537 -0.05328735 0.011073169 0.008769382 0.00026226565 0.011909633 -0.028055036 -0.02700753 -0.019338885 -0.025481835 -0.0063352915 0.08358484 -0.027325157 -0.08081112 0.04705728 0.07557078 0.013491656 -0.0014167255 0.00225352 0.027818846 0.034399558 0.021330781 -0.080540664 -0.0063790143 -0.007051414 0.043124232 -0.053382684 -0.023236325 0.022041395 -0.027770156 -0.09149916 0.012268623 0.047315974 -0.008865802 -0.00031031022 -0.06993524 0.005973935 -0.037283767 0.063090764 0.03006526 -0.020677488 -0.018189106 -0.01284793 0.044949774 -0.06739078 -0.043186344 -0.02193045 -0.013617003 0.06748076 -0.0894817 -0.015606218 -0.039816435 0.045612477 0.030681942 0.03837237 0.053233586 -0.0015565288 0.058912475 0.09049874 -0.10609072 0.046824206 0.081071295 0.012256883 -0.003581766 -0.06311355 -0.08227323 0.082189344 0.06197207 0.008100949 0.051545884 0.065877005 0.046429735 -0.010213906 0.026704064 0.06751154 -0.018666781 -0.0072197835 0.029773671 -0.01173408 0.024741631 -0.05873405 -0.055208426 -0.002549737 -0.045101665 -0.029088011 -0.13282555 -0.0502217 0.0017505568 -0.014119264 0.031727325 0.09384477 -0.022983624 -0.0048772604 -0.024193961 0.010087766 0.0097891 -0.031625926 -0.043039102 0.032426473 -0.018167432 0.002410323 0.031132013 -0.0006492796 -0.03849868 0.06807951 0.048292328 -0.048777062 -0.11404372 -0.02323586 0.027718568 0.113505065 0.054103643 0.010430792 -0.07731586 -0.0047218786 0.045788318 0.045788366 -0.052758314 0.024697285 -0.0447401 -0.06239467 0.010322571 -0.005654394 -0.020033212 -0.003651905 0.0048976247 0.060234785 0.05412088 -0.0023110036 -0.050090067 -0.0072446424 0.0017135823 -0.06916593 0.054379646 -0.12040908 0.06413134 0.006618468 0.049440812 0.019978384 -0.032851562 0.018718027 0.056281116 -0.019658955 -0.03674338 0.031236587 0.03927875 0.0029756343 -0.04541709 0.0053576804 0.080301665 -0.20012091 -0.011907688 -0.0211364 0.055716615 0.03307027 -0.06927443 0.016314114 0.057387006 -0.031352054 0.031168658 -0.027736437 0.031533748 -0.014456471 -0.071347 -0.05831466 0.051155306 -0.010164688 -0.032802254 -0.016967792 -0.007465367 -0.06736877 -0.008585943 -0.012957363 -0.11549915 0.010684484 0.07636234 0.043293968 -0.055652674 -0.10268738 -0.0136057455 0.07450628 0.007991079 0.08205036 0.06171084 -0.031504303 -0.008779357 -0.124674395 0.0013955556 -0.091797195 -0.04848412 -0.0704719 -0.03577145 -0.05184517 -0.066307016 0.106670424 0.030399095 -0.044927567 -0.0036904784 0.0105888415 0.0627251 -0.045805268 0.00036411808 -0.112202145 0.12175095 0.043735202 0.01251396 -0.004890118 0.03782753 -0.08926801 0.06213491 -0.048252184 0.060464077 -0.059045427 -0.06377906 -0.036569018 0.048478093 0.111125335 0.057761457 0.015940262 -0.0018559208 -0.06001845 0.032942787 0.040757746 0.0010301673 0.030944709 -0.028938876 -0.12420402 -0.04284693 0.010280625 0.08245991 0.036916755 0.06585813 -0.0023883537 0.013025684 0.013549323 -0.0085976375 -0.03941791 0.09639272 0.021747684 -0.025151998 -0.05043781 -0.0046769506 0.073914915 0.0069557303 0.00209277 0.044528596 -0.08162305 -0.011296378 0.06715954 0.032918945 0.025612509 -0.09751058 0.045169603 0.015294416 0.0012079693 0.030170143 -0.021841867 0.016009822 -0.0049239285 0.041175913 -0.083186574 -0.012084066 0.050401222 -0.06345103 0.08710638 0.046446834 0.03995498 -0.003637355 -0.032473717 0.014931155 0.041846097 -0.0044458047 -0.049209192 0.00460617 -0.045336515 0.030375937 -0.01342332 -0.056070995 0.02354644 0.04334639 0.054956395 0.09108296 -0.07473641 0.021769179 0.016845824 0.04601696 -0.06934086 -0.10020945 -0.002130319 -0.014649943 0.026274294 0.0008890913 0.04007704 -0.00566387 0.058635034 0.051124033 -0.06208141 -0.07214099 -0.077478446 0.091377325
160 0.111636356 0.035413306 0.07586004 0.038196955 0.07862756 0.01634667 0.09462149 -0.03146537 -0.030510768 0.039715428 0.021358645 -0.11522622 0.04360299 0.051384714 0.06279989 0.009918796 0.11922582 0.0050682006 0.05761941 -0.007999209 0.025742412 -0.015638921 -0.040403318 0.034999043 -0.07092491 0.0023353435 -0.09302027 0.05436172 -0.03172116 -0.050730947 -0.0049203904 -0.011123288 -0.08318908 0.01601009 0.00016131929 0.11836657 0.0072381664 -0.081250176 -0.018473608 -0.003105591 -0.026452666 0.00071418175 0.05622391 0.023574604 0.027871817 0.040440418 -0.013230398 0.0012905874 -0.0048965863 -0.008559711 0.07945062 -0.021029156 0.027847959 -0.10225222 -0.054721996 0.020318128 -0.03158145 -0.025313912 0.06618989 -0.022975117 0.06289381 -0.05459625 -0.04822474 0.03954309 -0.032173 0.00017079712 -0.083160065 0.09425104 0.038256336 -0.08626521 0.04131699 0.036178578 0.024872797 -0.08917845 0.016622674 0.01946616 -0.040130787 0.01513199 -0.0711899 -0.141182 -0.009590277 -0.05056216 0.0021334838 -0.031923786 0.03393584 -0.042909697 0.021729903 -0.0093856575 0.029988496 0.013353528 0.033081643 -0.032072455 -0.004097281 -0.037914846 -0.02839422 0.03660184 -0.0044787303 -0.09030626 0.004982092 0.06818022 0.024200298 0.032148115 0.049054433 0.05679824 0.021147398 -0.008014015 -0.086998984 -0.012993203 0.0036980754 0.06474735 -0.01091823 -0.06508327 0.019362388 -0.0419408 -0.052642796 0.022241639 0.022496596 0.0037002608 0.040425338 -0.06359449 0.00479107 -0.000244885 0.06557445 0.0517591 -0.045360755 -0.026754627 0.000116286035 0.029433446 -0.057802923 -0.047014706 -0.015453743 -0.016808694 0.043836035 -0.074336775 -0.0006692791 0.01836837 0.042480838 -0.005994857 0.01280302 0.05407834 0.0060932385 0.065578565 0.07097797 -0.073373 0.026928542 0.037173193 -0.0033437368 -0.015174173 -0.08777229 0.011571055 0.063519955 0.07584674 0.05429939 0.02710444 0.030728715 0.08943485 -0.016788883 0.024787124 0.083887964 -0.012587278 0.042648837 0.037749864 -0.021219611 0.033205885 -0.095683575 -0.016768366 -0.0067675794 -0.05462178 -0.045417022 -0.08027262 -0.06951566 0.008398329 0.026518358 0.023628075 0.11905844 -0.029617647 -0.023997841 0.012914029 -0.00228297 0.018469103 -0.06864252 -0.005309756 0.008601403 0.015586228 0.0020742125 0.044026773 0.015474164 -0.021928083 0.079831995 0.050974246 -0.0045095803 -0.10318829 0.0067712883 -0.010337271 0.07680579 0.090500474 0.012445855 -0.0037670773 -0.02524729 0.09784649 0.013756547 -0.03834315 0.039566066 -0.06460873 -0.0555532 0.009520417 -0.029125402 0.04132785 -0.055565856 0.020940714 0.04633431 0.05140746 -0.019086067 -0.07553973 0.053124912 -0.025154518 -0.030843852 0.018902533 -0.08618317 0.062178098 0.038125567 0.0180266 0.031725124 -0.049046185 0.058457807 -0.018824738 -0.0062672566 0.021386145 0.01841465 -0.014636364 -0.056056753 -0.04584854 -0.004067207 0.031858005 -0.19830808 0.065359995 0.054007042 0.020615485 0.008433727 -0.045146786 0.013393434 -0.010046226 -0.05683055 0.07076727 0.021616733 0.03568691 -0.05990236 -0.07297423 -0.079604715 0.004705351 0.0014320114 -0.06876936 -0.06061397 -0.018080218 -0.0707271 0.0043973653 -0.05018206 -0.062040504 0.006003204 0.020742824 0.08126048 -0.08747788 -0.08160195 0.0063552856 0.07881139 0.017211434 0.06649478 0.052619103 -0.03013005 -0.012283194 -0.02402014 0.032768793 -0.081245445 -0.061223667 -0.07904633 -0.056667004 -0.056563437 -0.07445488 0.07347451 -0.04171966 -0.0011341256 0.034417443 0.0033809775 0.076891474 -0.03581416 -0.005242354 -0.06714123 0.10955965 -0.052421015 -0.043191932 -0.004790438 0.07830409 -0.091414295 0.053192593 -0.020840663 0.007073242 -0.054352935 -0.06691802 -0.058817618 0.08014503 0.14145032 0.03363598 -0.024690188 -0.004653597 -0.012058531 0.03709994 0.031943228 -0.02387614 0.10082341 -0.010416049 -0.11607069 -0.07435091 0.011746982 0.08148088 -0.0036863883 0.05177867 -0.00686294 -0.017889617 -0.0061751925 -0.008907692 -0.028428607 0.1207525 0.022088226 -0.0057961573 -0.024151258 0.026453687 0.05059655 0.08136794 -0.035988517 0.10373702 -0.059331197 -0.028167186 -0.011964074 0.038552057 0.040977623 -0.07080373 0.039162613 0.0008571788 -0.020245226 0.05460504 -0.04180868 0.029668737 0.04526894 -0.0133095225 -0.03289331 -0.0074211494 0.03412738 -0.060783397 0.057655703 0.025129654 0.038960226 0.003749552 -0.051692545 -0.0008913753 0.09597675 0.0025759477 -0.033466578 0.036145948 -0.03926608 -0.06853626 0.03963394 -0.009500165 0.015377386 0.034717284 -0.004437478 0.08217838 -0.029958736 0.030542754 0.020723889 0.02971557 -0.09042731 -0.13005526 -0.0061248154 -0.057428934 0.05440987 0.008846886 0.0052448893 -0.041686185 0.041407958 0.013775021 -0.03493701 -0.03961002 -0.080301635 0.050731815
177 0.14001586 -0.04917204 0.018506868 -0.0023503785 -0.038761742 0.04954746 0.03531635 -0.044291046 0.0016837886 0.08533228 -0.028847648 -0.06128238 0.007116477 0.036110643 0.058581583 -0.06601888 0.103545286 0.02845522 0.024431804 0.016217388 0.023824636 -0.031800635 -0.031488188 0.0062020607 0.01735682 -0.049626224 -0.034017716 0.057945635 -0.04572279 -0.03559577 -0.025423568 -0.08820342 -0.015561407 -0.0069272257 -0.01928664 0.08515916 -0.077479586 -0.037193045 -0.09882937 -0.0037456069 -0.015462657 0.026553182 0.017982012 -0.027964266 0.0037044135 -0.0012515343 0.03508504 0.051920805 -0.017820256 0.014206641 0.016199952 -0.005589994 0.025065172 -0.035938688 -0.09229649 -0.07141301 -0.014772315 0.07621999 -0.0026549103 -0.037859946 0.05553939 -0.058098786 -0.025793377 0.0013309746 -0.06727802 0.04783909 0.0062253783 0.100835815 0.011686305 -0.06420905 -0.030011745 -0.031882178 0.038174707 -0.047831967 0.013446684 0.053012136 0.02107203 -0.023249073 -0.04379019 -0.035245538 0.058762982 -0.10809692 -0.06961759 -0.057641093 -0.011581675 -0.06342689 -0.019710315 -0.01043124 0.023640256 -0.0660972 0.007015684 0.017466411 -0.026009167 0.0006900524 0.0028187758 -0.0125162555 0.00040189418 -0.017424095 0.08542664 0.08865106 0.01420021 0.003038456 0.07220798 0.07357714 0.005996065 -0.022010287 0.01080508 0.047766525 -0.031075727 0.0347387 -0.07723924 -0.007830757 0.09117514 -0.064791694 0.023300532 0.09339396 -0.042980995 0.11469644 0.05747264 -0.12265427 0.0142371375 -0.022438593 0.013380004 0.043106865 -0.0487385 0.02705903 -0.07112044 0.017740307 -0.08498744 0.003017212 -0.059237458 -0.050367773 0.0188783 -0.019101864 -0.037123945 0.024360687 0.0033465696 0.002378097 0.06533124 -0.032776475 -0.0016667637 0.034131978 0.03550715 -0.037725993 0.11203398 0.08482151 -0.059267208 -0.017545486 -0.102654085 0.0275601 0.056756638 0.0574891 -0.018999266 0.020187963 -0.006345748 0.056903303 -0.041055344 0.023220394 0.034359045 0.029085018 0.04324796 0.027301144 0.027898634 0.077258624 -0.05256877 -0.02916743 0.048757967 -0.013335844 -0.08629708 -0.034660164 -0.072185755 -0.0022205685 0.014757882 0.07452708 -0.017207615 -0.024093796 0.003446599 0.03997721 0.027394798 0.045729753 -0.09275886 -0.0053281146 0.064189725 0.010194798 0.0018780995 -0.017828137 0.044547092 -0.0330656 0.115104385 0.03590627 -0.0029048843 -0.06592338 -0.03657491 -0.05727657 0.106033765 -0.008112313 0.082075365 0.0009335421 0.001858308 0.10528692 0.0042876396 -0.0053886105 0.022555906 -0.007464224 -0.09243303 0.026987642 0.02979121 0.067454085 -0.015661832 0.009289582 -0.032383174 0.008266638 0.050612453 -0.065917805 0.05838176 -0.058731843 -0.033961378 0.022251656 -0.011833233 0.009766653 -0.03427775 0.030409725 0.047082756 -0.052500058 0.1107524 -0.000615187 -0.08182175 -0.010196047 -0.0070382576 -0.00028558692 -0.036483638 -0.04043909 0.100451194 0.032267246 -0.13488524 0.0010243066 0.040972233 -0.01972138 -0.023358393 -0.03274014 0.07203069 -0.03197111 -0.033912826 0.0011238444 0.052306484 -0.07963836 -0.080278315 -0.06875239 -0.013696908 0.016530972 -0.00025124763 -0.07212833 -0.09493262 -0.01747085 -0.07665737 -0.054765508 0.0011461237 -0.008832627 0.033119086 0.047625724 0.11847616 -0.0037345646 -0.072060995 -0.036978707 -0.0012356514 -0.003650315 0.065755375 0.06665557 0.009963906 0.015797002 0.00306653 0.012337756 -0.026681025 -0.09515317 -0.1262038 -0.061565906 -0.0022106485 -0.10167019 0.019871123 0.0345145 -0.0031617503 0.03662561 -0.001558259 0.06446188 -0.01686831 0.011844109 -0.06431041 0.041716088 0.00094627007 0.051159088 -0.036362514 0.05876975 -0.10479952 0.050465155 -0.0101254815 -0.03249313 -0.0163053 -0.049354255 -0.12966348 0.03118943 0.07557112 0.1379592 0.030816996 0.053265236 0.066439636 0.04050791 -0.012650206 -0.020161513 0.0819826 0.07854184 -0.0018318002 -0.054794602 -0.041380722 0.03965856 0.03706311 0.07677667 0.10718582 -0.089231856 0.038445897 -0.025509408 -0.062222484 0.061410267 -0.057250157 -0.06471083 -0.02803038 -0.019054802 0.03573239 0.038826443 -0.04242337 0.09473129 -0.062063225 -0.0261059 0.025033051 0.037506342 0.051370405 -0.022467084 0.008910822 -0.027281761 -0.057394158 0.01946944 0.0205985 0.026666176 0.08234748 -0.02375747 -0.052674 -0.007253067 0.028772283 -0.075094976 0.05348365 0.016606636 -0.0071182135 -0.019433282 -0.017779492 -0.019444773 0.07598024 -0.027023545 -0.03722587 -0.024530336 -0.041637957 -0.026324494 0.045477252 -0.02808968 0.063780084 0.03222531 0.12124307 0.048305135 0.0024870574 0.048217613 -0.032686103 -0.028163109 -0.0857912 -0.033812504 0.002926294 -0.05280647 0.033593472 -0.009046773 0.016828516 0.094234295 0.0413437 0.08582801 0.026292523 -0.032240365 -0.007460168 0.00952976
178 0.062044796 0.034754317 0.07127229 0.022579761 -0.061918523 -0.038975276 0.118937574 -0.0067185247 0.011024356 0.046659797 -0.011918264 -0.16161382 0.04583796 0.04775182 -0.010169803 -0.050727468 0.15380439 0.029036464 0.07244831 -0.030615691 -0.0060548214 -0.044716477 -0.097448476 0.024274541 -0.040426876 -0.009313027 -0.14639886 0.04819288 -0.012944833 0.007451247 -0.035044037 -0.053093426 -0.07965161 -0.058429535 -0.020564245 0.0936907 -0.008936096 -0.042371444 -0.040071443 0.03757678 -4.2898686e-05 0.071146086 0.052048985 0.08618217 -0.013652295 -0.013163087 0.0054019135 0.00071471295 -0.030732175 -0.025096212 -0.00022120263 -0.021477478 -0.0224929 -0.092984885 -0.044897325 -0.027044453 -0.022375857 -0.048584852 0.04273573 -0.03715622 0.098261684 -0.035815507 0.012942928 0.050954346 0.00026222598 0.012892358 -0.019646695 0.14855243 0.065042496 -0.057930045 0.031714737 -0.021620438 -0.0045828084 -0.041076344 -0.0150805265 0.020630976 0.036195748 -0.015978014 0.02066957 -0.05915622 -0.04187047 -0.06903529 -0.025859632 -0.02060664 0.071609296 -0.009852468 -0.038041297 0.01572095 -0.045684595 0.002058863 0.07471929 -0.035791673 -0.008868943 -0.057657976 -0.029847378 0.02858324 -0.022434188 -0.019240197 0.010358836 0.029372483 0.06754183 0.0064205364 0.049036976 0.052667193 0.029142356 -0.053233013 -0.079750374 0.0057558278 0.0033703118 0.068495326 -0.07914166 -0.033558905 0.071542904 0.016423827 -0.060442638 0.057024043 0.005449162 0.02572561 -0.008134601 -0.009137013 -0.011076098 0.003904416 0.041589256 0.00053306157 0.012670535 0.025858948 -0.02583619 0.013350073 -0.05131194 -0.07266386 -0.0058576767 0.0077364007 0.010328874 -0.057315167 -0.0013121357 0.038360067 0.038044926 0.011632507 -0.013430806 0.023451002 -0.010785362 0.03436738 0.056415386 -0.053248093 0.052327577 0.064738855 -0.019739723 -0.02074969 -0.07632646 0.002404461 0.045319892 0.06885037 0.07095756 0.08219933 -0.07196623 0.047298845 -0.008554727 0.07529776 0.032959502 -0.027739344 -0.013734618 0.07318383 -0.074590564 -0.015828226 -0.09693146 -0.023323167 -0.031051058 -0.05541965 0.023903346 -0.031128176 -0.09038413 0.067060135 0.1018117 0.057022672 0.04790549 -0.0502162 0.030748907 -0.009381877 0.051375374 0.039319765 -0.11340209 -0.011728656 -0.0014292782 0.035309825 -0.00028064242 0.021916136 -0.010821914 0.03844855 0.013191929 0.018046226 -0.009126781 -0.04976769 0.08465419 0.0029996587 0.044133637 0.0907974 0.02159803 -0.023722822 -0.015236059 0.13041385 0.0054483055 -0.05084808 0.025913335 -0.016209377 -0.037885148 -0.030510249 -0.03303687 0.060328923 -0.027129408 0.058457203 0.013041882 0.059460852 0.022129368 -0.065627165 0.08752359 0.02681187 -0.012858823 0.052583996 -0.030666316 0.0031838662 0.011126263 -0.0147694275 0.0074534174 -0.052729797 -0.011205628 -0.032561813 -0.021945035 -0.058691233 -0.017430367 -0.034141216 -0.0019098213 0.0646294 0.018665003 0.008737256 -0.1561856 0.07864522 0.06850967 -0.013607396 -0.022512376 -0.0048146965 0.019284634 -0.03917455 -0.059790995 0.0302736 0.061829615 -0.0017447576 -0.015155231 -0.02882989 -0.073494166 0.02382537 -0.056196284 -0.07591088 -0.0085502695 -0.0072884317 -0.09705217 0.024306783 -0.0047645574 -0.00012075099 0.038744822 -0.015523273 0.070618115 -0.02442296 -0.061195914 -0.031074673 0.051819753 -0.017709402 0.043614894 0.075989604 0.038708933 0.031768043 -0.028385947 0.023171796 -0.03942747 -0.09093394 -0.0906377 -0.09714395 -0.013772643 -0.056894198 0.05317396 0.0055817673 -0.010971617 0.008218391 0.06450921 0.086813115 0.019019656 -0.042392556 -0.034291483 0.09000399 -0.054280065 0.011395797 -0.014997874 0.08709882 -0.13984914 0.053131163 0.056249186 0.013368683 -0.06733597 -0.09500605 -0.023906989 0.09183403 0.057902664 0.0856368 0.0082146535 0.02939662 0.019476864 0.08123008 0.047444634 -0.020038148 0.091765046 -0.034819018 -0.06411355 -0.007570862 0.03652719 0.005680866 0.030126974 0.03813505 -0.020776471 -0.031754132 0.042449128 -0.022890866 0.01415018 0.123432666 0.015977426 -0.0479213 -0.09396272 0.01101262 -0.006905678 0.0692088 -0.02906045 0.044982392 -0.025166735 -0.013752986 -0.057010736 0.027985098 0.07131672 -0.006581306 0.008385132 -0.061628606 0.009427826 -0.0016568148 -0.071160585 0.020662414 0.0965363 -0.00095523056 -0.11343905 -0.016083784 0.038153592 -0.053845443 0.07236289 0.047599036 0.050875496 -0.0655691 -0.08021384 0.026354328 0.04266359 -0.027634865 -0.10112326 -0.02662849 -0.012736721 -0.07460676 0.06309294 -0.057316437 -0.0031661808 0.059097685 0.07278467 0.058921415 -0.0044575175 0.05579924 0.027044745 -0.026744388 -0.053676426 -0.054861695 -0.09323564 -0.07082078 0.023959277 0.036752127 -0.009096497 -0.011820909 0.011525206 0.021106912 -0.03846916 -0.051967654 -0.02939361 0.035347734
1 0.0041756784 0.015360446 -0.0020128177 -0.047570508 0.023612011 -0.005648047 0.05648443 0.051538985 0.057546515 -0.10143961 -0.015106944 0.029579587 0.027792413 -0.004723935 -0.024243502 0.00015070356 0.045317546 -0.011010083 0.05025706 -0.07091572 -0.054559454 -0.01821012 0.0020831064 -0.048563007 -0.04849905 0.042853627 -0.0062304195 0.07346464 0.029967643 -0.053675555 0.020242093 -0.014291015 0.07795351 -0.011141503 0.024072105 -0.10405843 -0.044117585 -0.011116029 -0.02530035 -0.11967965 -0.07143048 -0.087648444 -0.046244897 0.011694089 0.07247895 0.038330503 0.049423795 0.02063251 0.03591662 0.0011084524 -0.068608 0.024289189 0.03626568 -0.025856312 -0.010774551 0.029390914 0.011923979 0.04955897 -0.066618145 -0.04093937 0.051102646 -0.10848188 -0.066681996 0.07181089 0.026706958 0.03409026 0.03125711 -0.003102444 -0.07550984 -0.021294726 0.060965396 -0.07317895 -0.025411403 0.020183867 0.018222818 -0.038070586 0.0032286933 0.021781484 0.018763762 -0.057470508 0.027146356 0.05066252 -0.053976513 -0.06252113 0.01534507 -0.028107675 0.01469517 0.010731211 -0.076735064 -0.011497745 -0.074227646 -0.0027151997 0.025197836 -0.026204363 0.10918447 0.010644896 0.06909048 -0.048435744 0.06266574 0.16319214 0.023006396 0.04817465 -0.03081756 -0.014596869 -0.1101003 0.092562914 -0.02824418 0.054343343 -0.031116072 -0.032793477 -0.0046427255 0.018950677 -0.01989307 -0.05050101 -0.099234745 -0.07117889 -0.07398961 -0.017162757 0.084180064 -0.0032374877 -0.077344656 -0.089344695 0.026665626 0.011952447 0.037268978 -0.07508652 0.0047297697 0.0304503 -0.10497358 -0.003137955 0.018694071 -0.027815798 0.00586792 0.0535851 -0.010818696 0.054264344 -0.011628257 0.01434773 0.04210238 0.0430357 -0.086503066 -0.03252161 0.07573584 -0.036258463 -0.028900148 0.009325525 -0.05665848 -0.15727831 -0.012363213 0.033001717 0.07630225 0.017519312 0.093374215 0.026661173 -0.001283746 -0.0251702 0.11415402 0.0373287 -0.004829104 0.06688984 -0.04541865 -0.01406996 -0.017522449 0.02344332 -0.13599524 -0.004709907 0.0009501874 -0.016170045 0.0215266 -0.033932395 -0.06290049 -0.06038813 -0.0851038 0.0027918385 -0.030271567 0.051003445 0.004724992 0.096189104 -0.047178492 0.0065932036 0.0042420602 -0.017278707 0.015042344 0.059600912 0.03386281 0.03038645 -0.021094915 0.013376525 -0.12608993 0.081335366 0.03522948 -0.034112148 -0.012373695 0.06999521 0.029274177 -0.004291369 0.0016790561 0.050205994 0.02335116 -0.05273077 0.028467612 0.05838638 0.0568069 -0.03459678 -0.004426731 0.022264501 -0.06299962 -0.020264003 -0.09370213 0.07883506 0.042082477 -0.035228513 0.07616633 0.00031325032 -0.0002911016 -0.09157133 -0.077575214 0.063193105 -0.06307224 0.052725855 -0.10045319 0.10185426 0.047868993 -0.05855878 0.029645566 -0.04654622 0.041568063 0.05496676 -0.062123206 0.028186385 0.059538066 -0.081763 -0.02079813 0.037511747 -0.02633008 0.0027460204 0.030106105 -0.00033160168 0.013743122 -0.018498838 0.030054847 -0.053075165 -0.0011058571 0.025898404 0.039257843 -0.023852697 0.019226454 0.07320305 -0.013535557 0.06951884 -0.079538845 0.0482541 -0.02193157 0.05704458 -0.012486637 -0.033857767 0.045698214 0.04348912 0.002942089 -0.008476893 0.069858424 -0.033521198 -0.033715002 0.015044058 0.013822548 -0.019586647 0.0160706 0.10973149 0.05250074 -0.03549971 -0.03367077 -0.08956457 0.02957112 -0.024589863 0.11778957 0.0067570023 -0.0330982 -0.0053066793 0.0036328933 0.06644187 0.12623388 -0.026499381 -0.005977858 0.039118204 0.04800378 0.010876268 -0.016863547 -0.04450096 -0.062234968 -0.10123663 0.0394618 -0.016074294 -0.01730482 -0.05383568 0.058011338 0.043830402 0.015046296 0.004187569 -0.0018657993 0.0246685 0.09299085 0.0022454748 -0.0015270853 -0.038088758 0.044609506 0.000515892 0.048188467 0.07059045 -0.08108524 -0.032501396 -0.06840884 -0.009028767 0.05481433 0.04657839 -0.02675673 0.022376265 -0.006584761 0.0628408 -0.09568706 -0.020334693 -0.025001954 -0.004287428 0.08532998 -0.0001615716 -0.06003708 0.0041115517 0.021285396 0.027636917 -0.07448374 -0.030533707 0.054982126 -0.05865094 0.0018652651 0.09195259 -0.06036912 -0.0031844613 -0.03597757 0.0122099975 -0.011392217 0.025493857 0.049576867 0.054502163 -0.013361431 0.083289154 0.038606856 -0.04587262 -0.009099598 -0.063988894 0.0673587 -0.0065498664 -0.068381295 0.031684633 0.059745792 -0.0058359145 -0.0032230564 -0.056589853 -0.008069656 0.0816453 0.022428488 -0.06947401 0.11090187 0.03567147 -0.07125938 0.003335582 0.004710998 0.018578298 -0.07668846 -0.07272159 -0.08036803 0.004421913 0.003565942 -0.037047144 -0.03960878 0.10230707 -0.008549662 -0.04994745 -0.021077232 0.024784097 0.016550818 0.008328507 0.047755327 0.00358528 0.05374846 0.08544221
2 0.031668056 0.010061008 0.03632742 -0.007428007 -0.03823239 0.00015562096 0.05923819 0.01715514 0.003966079 -0.08917759 -0.011255505 -0.007839128 -0.0028666754 -0.014517841 0.021618044 -0.058824196 0.09608031 0.0044533913 0.038082477 0.0032598267 -0.035210125 0.018158326 0.01787328 0.0055265087 -0.07407226 -0.0045479345 0.00019144519 0.110217504 -0.014626852 -0.08672411 -0.019618694 0.020974083 0.03601371 -0.009258187 -0.02451164 -0.10517778 -0.06897815 -0.01839587 -0.038025275 -0.069164716 -0.055958346 -0.092719495 -0.018747192 -0.0077052074 0.09915082 0.09779209 0.04337292 0.012588186 0.026532818 0.019298578 -0.0045782025 -0.058789145 0.008691445 -0.03281022 0.0045164693 0.052668456 -0.0103292 -0.003255753 -0.08558678 0.00038127395 0.0142552415 -0.01948363 -0.025304487 0.06841996 0.013168393 0.014137796 0.025579946 0.03564502 -0.07838617 0.03123927 0.02374815 -0.07265315 -0.046012577 0.027859734 0.08025043 -0.046759363 -0.037744433 -0.023240177 -0.04227137 -0.065288946 -0.0108586475 0.014937831 -0.00990867 0.012223738 -0.0016899946 -0.0011559605 0.033873547 0.005655456 -0.10232706 0.03858195 -0.06616478 -0.022105305 -0.051072914 -0.04397475 0.1155619 0.042315423 0.008413431 -0.033967692 0.11728741 0.031222448 -0.0061338865 0.041428946 0.009857341 0.061817054 -0.08502194 0.006717743 -0.030143045 0.09658956 -0.026189087 -0.022966206 -0.04361213 -0.00948263 -0.024162594 -0.055087894 -0.0796857 -0.07396817 -0.058727615 -0.038219377 0.10039411 -0.019510228 -0.075729996 -0.09337505 0.04419159 0.030240921 0.06979189 -0.07953149 -0.015740471 0.03166093 -0.053263195 -0.020846143 0.08096562 -0.030190013 0.022634828 0.025308374 0.019600676 -0.017606465 0.04565422 0.06955475 0.08296742 0.01154604 -0.08081851 -0.015819488 0.022049926 0.022941316 -0.049872104 0.032087594 -0.13067248 -0.10149171 -0.025415802 0.0946918 0.030888768 0.040877555 0.019645058 0.027602652 0.033376433 0.055241838 0.0023491704 0.0073555144 -0.019503856 0.013452134 -0.017431756 -0.016156506 -0.052613307 -0.013097309 -0.05874814 -0.017803807 -0.0055399486 -0.0046852366 0.04568174 -0.0350872 0.020458985 -0.008993369 -0.11226487 0.07686203 0.036341563 0.07297017 -0.018603217 0.040525433 -0.052438222 0.031487465 0.052667715 -0.02371502 -0.009686054 0.0570222 0.014947598 0.024989907 -0.036428064 -0.008261697 -0.033188853 0.118764415 0.10420125 -0.048638016 -0.0509557 0.05877261 0.019236129 -0.034640547 0.023268707 -0.0026772302 0.03312136 -0.061479986 0.017202487 0.10479621 0.083495036 -0.028280804 0.0059514116 -0.011241365 -0.08159777 0.008882706 -0.044112697 0.12344221 0.043893576 -0.017020158 0.08518198 -0.04618152 0.001774321 -0.08373682 -0.0063035013 0.004955812 -0.063860975 -0.015111921 -0.09309855 0.045918066 0.026084678 -0.047774687 0.059987925 -0.025455855 0.05846844 0.06778673 -0.00066770584 0.008415335 0.038450126 -0.034402486 0.046599474 0.086349025 0.019074319 0.0149941705 0.022838656 -0.04730264 0.096164644 -0.0048906407 -0.02483401 -0.048687305 -0.009645307 0.04304514 0.026213419 0.01134966 0.046630934 0.016639028 -0.012647497 0.05039092 -0.08890699 0.045253895 0.033758245 0.07022851 -0.047378078 -0.03775908 0.06528343 0.03373501 0.026210556 -0.023681775 -0.0113 0.017533287 -0.03126618 0.04018189 -0.010328027 -0.003135335 -0.0071120593 0.046366397 0.015458668 -0.07535311 -0.0871459 -0.09840836 0.018723983 -0.04292925 0.10552667 0.00058404123 -0.04626634 -0.06712034 0.03874979 0.059233926 0.090125926 -0.0539328 0.013251425 0.08288127 0.0062282365 0.042849526 0.01930142 -0.06981823 -0.008155371 -0.07779872 0.006440206 0.021284793 -0.053872377 -0.008926775 0.010404918 0.013380487 -0.0013589454 0.051747948 -0.014406992 -0.028540134 0.13175009 0.027002094 0.03425801 -0.03100235 -0.025972087 -0.024137085 0.04646707 0.100545205 -0.07656435 0.045618143 -0.17839669 0.0087779695 0.015336038 0.08144704 0.03581527 0.029639883 0.09383117 0.07891724 -0.14966857 -0.0047837356 -0.027681472 -0.04985867 0.13437821 0.08565051 -0.1212648 0.03617658 0.058294974 -0.028858673 -0.090231106 -0.0428313 0.01887273 -0.021278603 0.07343136 0.06088469 -0.055105664 -0.029072862 -0.051655043 0.05702892 -0.06222717 -0.018876852 0.021841178 0.040952444 -0.036097467 -0.017964145 0.010006893 -0.031968825 -0.028357076 -0.062440936 0.0069256 0.027385212 -0.015135692 0.0551905 -0.0035448854 -0.022307329 -0.0045374334 -0.047244325 -0.021404099 0.041650183 -0.03166158 -0.037966214 0.045516398 -0.041757494 -0.056874357 -0.02708439 0.04107125 -0.0014185867 -0.009198481 -0.04590406 -0.06116739 -0.009608613 0.054624293 -0.043469932 -0.033873674 0.052872315 -0.017332722 -0.009005277 -0.009377793 0.023947002 0.084502846 0.056684487 0.027780646 0.0045609227 0.020068832 0.044455208
3 0.021919947 -0.056496948 0.011153388 -0.01458849 -0.047353514 -0.030016541 0.0335046 0.023034323 -0.050034635 -0.07342588 -0.06758667 0.041713864 0.01629625 -0.005947911 0.024235804 -0.021697352 0.093773484 -0.070482105 0.046301603 -0.03344316 -0.038009018 0.017420044 -0.035518944 0.044473983 -0.062976725 -0.0005068196 -0.0056961295 0.061075225 0.03598929 -0.12547372 -0.0896883 0.026292255 0.013138205 0.0011216241 -0.0035614988 -0.02216174 -0.050575398 0.005835249 0.044662055 -0.065510675 -0.043942265 -0.1307898 -0.006203579 -0.02043336 0.048484113 0.03743619 0.033040892 0.014123732 0.04046159 0.022835897 -0.0202319 -0.06965086 0.040980257 -0.056285735 -0.00015391574 -0.04668826 -0.045799475 -0.010606266 -0.07185647 -0.0074247206 0.032735307 -0.087912776 0.032357555 0.035058454 -0.042512447 0.013043367 0.023465144 -0.028654763 -0.017422076 0.02556265 0.006529968 -0.06586067 -0.068130165 -0.02611504 0.015165622 -0.038552932 0.05559198 -0.058794964 -1.0008828e-05 -0.06368684 -0.03700516 -0.0091334535 -0.01029228 -0.022409786 -0.05423893 -0.06999513 0.07080763 0.012498399 -0.07064228 0.057791594 -0.03769869 -0.0018640937 -0.02539882 -0.04526936 0.030061584 0.06787419 0.06552937 -0.0032617429 0.13540538 0.013637525 -0.016538147 0.02388088 0.0027755909 0.022442948 -0.11949107 0.027505213 -0.028378861 0.06392288 0.04458782 -0.07425773 -0.015351224 0.013850457 -0.014217971 -0.03791271 -0.15728635 -0.072153114 -0.08852667 -0.040465124 0.10715148 -0.019939017 -0.036752876 -0.04719694 0.09118681 0.09238089 0.07270336 -0.054040987 0.01806327 -0.0047178073 -0.07001141 -0.01614052 0.05058565 -0.008357707 0.00882115 0.04372075 -0.008354915 0.00093879044 0.03290043 0.06227228 0.058163855 0.043306865 -0.078049414 -0.017886981 0.045429718 0.015512424 -0.049240854 -0.009382886 -0.12436726 -0.08932342 -0.05543355 0.0858933 0.07336468 0.09039977 0.020198498 0.0064743203 0.04259933 0.074722566 -0.0070612985 0.011758318 0.008717632 0.057389922 0.008739892 0.051808197 -0.026218232 -0.013469271 -0.11605907 0.02485639 -0.019134026 0.014591606 -0.0042267884 -0.025308069 -0.04253392 0.008208605 -0.083198845 0.023509135 0.07077718 0.06165297 0.013056784 -0.0035882667 -0.022035845 0.05204005 0.014925769 0.04299532 0.075002685 0.02981185 0.030261168 0.03144836 0.0064055854 0.018158158 -0.03562423 0.08011832 0.0967798 0.00077752967 -0.026555302 0.016472593 0.05356389 0.0064461967 0.04502421 -0.019360347 0.10589523 -0.053405713 0.011275301 0.08060555 0.06769012 0.0042819963 -0.007589257 0.004578648 -0.09569651 -0.029741421 -0.0029649604 0.053632334 0.023435572 -0.03834256 0.09390709 -0.030137064 0.015222987 -0.042955987 0.029820746 -0.021703064 -0.10696905 0.00042887055 -0.08869192 0.05461199 0.04121022 -0.024406485 0.085166804 0.0057913484 0.09355216 0.02277031 0.014357848 -0.0036852884 0.0315793 -0.03807843 0.02618349 0.09903436 0.024418652 0.006208607 0.018508311 -0.039318595 0.06638823 -0.023848508 0.018083412 -0.042345665 -0.018766461 0.032963745 0.054276 0.056517795 0.01047295 0.012702653 -0.039726324 0.008140667 -0.083272934 0.0571709 -0.045694772 0.049221274 -0.041633118 0.024638189 0.11845155 0.04747159 0.016687613 -0.058023494 -0.00022246287 0.022680696 0.018802987 -0.02725229 -0.03745816 -0.02999332 -0.017832624 0.06594343 -0.016480073 -0.08506025 -0.14698094 -0.12495578 0.04856999 -0.04102705 0.06661606 0.021990715 -0.09598275 -0.03680369 0.0034662983 0.06591845 0.076531075 -0.0011023692 -0.009864867 0.065524235 0.013362029 -0.008124368 0.038366828 -0.070534214 0.00992206 -0.0640137 0.051438037 -0.002905107 -0.010339694 0.008834013 0.06894367 -0.006589493 -0.019293949 0.04639397 0.008716566 -0.013343035 0.081699654 0.045843404 0.079014726 -0.0020234955 0.009524929 -0.012742093 0.06334358 0.13666008 -0.05537717 0.019332835 -0.11879362 -0.02058 0.0047023688 0.115731776 0.039009966 0.011198707 0.068177484 0.117937036 -0.061145525 -0.0017511689 -0.050938714 -0.041476723 0.0420955 0.053079143 -0.08343668 -0.034879353 0.042912334 0.006654169 -0.10913951 -0.017061472 0.024393322 -0.052192863 -0.0009987546 0.07634217 -0.033443213 -0.025028847 -0.04930167 0.056672115 -0.05218179 -0.008809247 -0.01665989 0.022108724 0.039263666 0.018766306 0.0030036492 -0.035030514 -0.055963546 -0.08063335 0.057177022 0.0078008 -0.038763385 0.006594922 0.014835598 -0.05879742 0.02105639 -0.027628189 0.008564337 0.054677885 -0.011438047 -0.027232334 0.05074239 -0.0030355107 -0.05234447 -0.036620267 0.05554791 -0.028200764 -0.087527506 -0.029435493 -0.049534034 0.00088546757 0.041100815 -0.03061176 -0.03478418 0.10569988 -0.01381557 0.014609915 -0.05139633 0.027223421 0.066607535 0.044474404 -0.04499206 0.0041902056 0.04447009 -0.02200499
8 0.01672588 0.025731096 0.018500509 -0.013158269 -0.06244657 0.028429361 0.031547006 0.009444083 0.021050561 -0.09943602 -0.017093875 0.03539186 0.016314667 0.0064809183 0.02982395 -0.033233743 0.07646353 0.03184298 0.045955624 -0.008836502 -0.038102627 0.0034328022 -0.03749671 0.021783438 -0.055791646 0.00808067 -0.00044812128 0.10833954 -0.0006815479 -0.060523175 -0.017579166 0.018911853 0.02905271 0.008540988 -0.02028862 -0.108531736 -0.079398714 -0.016034294 0.00028817382 -0.097836986 -0.056191172 -0.09555942 -0.025393179 -0.0066266805 0.09961349 0.080662176 0.028836964 0.035699762 0.051345862 0.0036676312 0.0076170806 -0.037953325 0.024538806 -0.06327056 -0.034776162 0.045254856 -0.013362242 0.0025978016 -0.05549968 -0.033096127 -0.013860927 -0.055126693 0.00074713567 0.05192928 -0.037934504 0.03199482 0.003947793 0.037039515 -0.050087254 0.028269816 0.013018496 -0.06733004 -0.042689253 -0.0043317927 0.06979252 -0.08035162 -0.017554509 -0.009749137 -0.046661958 -0.048140172 0.020493375 0.0036355 -0.024427125 0.0029559706 0.016296819 -0.03414843 0.037012246 0.0024562117 -0.07978703 0.037043277 -0.041446954 -0.019500159 -0.028605087 -0.026325844 0.08301639 0.049677197 0.05456992 -0.03933817 0.10463267 0.021421112 0.029631289 0.04814871 0.036044657 0.03441862 -0.084323116 0.049033515 -0.0019858857 0.0499895 -0.007253996 -0.05645647 -0.0030790414 -0.010305212 -0.0052545904 -0.0625575 -0.108206876 -0.0673353 -0.08963865 -0.02803546 0.06500413 0.0033313385 -0.06194524 -0.07788816 0.06693469 0.06402455 0.03801974 -0.05508473 0.018141316 0.0025518923 -0.10280536 -0.03047341 0.046803333 0.022383364 -0.0034209152 0.00861844 0.031542577 0.0008962084 0.018716533 0.05077844 0.09194448 -0.031654928 -0.100457005 -0.020225147 0.019124601 -0.001530656 -0.06986592 -0.00577648 -0.109675944 -0.0925 -0.02107596 0.08461646 0.029734094 0.03489702 0.0026482437 0.028484177 0.05777342 0.034820233 0.016219681 0.027768308 -0.0113911135 0.04951359 -0.009518986 -0.011491318 -0.012840469 -0.029966608 -0.07516504 -0.008096358 0.012019874 -0.012221918 0.030259224 -0.03329725 -0.00656886 -0.0063367467 -0.10613536 0.08166478 0.038058653 0.08217345 0.016613904 0.04994973 -0.04673342 -0.0052299155 0.0013110582 -0.006999999 0.0023250452 0.04635317 0.006227189 0.032474067 0.0007172316 -0.047916215 -0.05772788 0.13116506 0.09498104 -0.06190363 -0.07482063 0.07586354 -0.0012870523 -0.01726396 0.0088824285 0.013890496 0.03984482 -0.05550239 -0.01411468 0.07992039 0.09819548 -0.021975644 0.057305913 0.0039743483 -0.08106597 -0.008920531 -0.07275141 0.08592621 0.06248361 -0.02041981 0.107300796 -0.015118658 0.014417957 -0.087789305 -0.0075576417 -0.009600599 -0.028970582 -0.021933144 -0.09812557 0.06492331 0.05699734 -0.03021274 0.08952036 -0.053213198 0.06369012 0.035976555 0.0052400553 0.0053266254 0.021720396 -0.04007794 -0.0066738976 0.07430857 0.013487795 0.024605146 0.032772962 -0.022893595 0.11076076 -0.03014356 0.0020701634 -0.03893135 -0.0011797326 0.045843244 0.0335576 -0.0061488757 0.036180686 0.027233679 -0.013842489 0.025846554 -0.09431581 0.07906267 0.06904447 0.073397346 -0.026406087 -0.0034829404 0.08427381 0.03881439 0.0043964996 -0.03344978 0.0049898 0.0017558745 -0.065854624 -0.00018838841 -0.05263301 -0.01608394 0.008139907 0.061021235 0.027300581 -0.062160622 -0.038582332 -0.07351572 0.059012424 -0.049916774 0.11620079 -0.01185919 -0.049369793 -0.01228558 0.022759067 0.07936382 0.1005831 -0.03636756 0.007333545 0.048645224 0.019707777 0.041074988 0.051840346 -0.114356965 -0.010897546 -0.118382804 0.023391627 0.0019238178 -0.075700425 0.0031998856 0.01337972 -0.012306411 -0.014656263 0.014359848 0.014012557 -0.024115613 0.12921394 0.020767858 0.05698621 -0.044633385 -0.029272672 0.009162685 0.033223122 0.09766662 -0.08670069 -0.0077661183 -0.17028162 -0.0070380396 0.020145481 0.10880558 0.024433423 0.027309995 0.0944397 0.076388486 -0.13401403 -0.013288088 -0.026946558 -0.027654573 0.119946696 0.040007345 -0.12574528 0.011454411 0.06562225 -0.02684052 -0.07879677 -0.07139263 0.029129276 -0.04074416 0.057370294 0.033034246 -0.08418252 -0.01502395 -0.05625277 0.017585753 -0.034717854 0.00034743428 0.022633687 0.035460345 -0.013758789 -0.019457225 -0.0036997849 -0.032701846 -0.029326497 -0.04994933 0.019733347 -0.002509089 -0.043235064 0.048151366 0.038636383 -0.022873241 -0.026232269 -0.057548285 -0.033674482 0.062245965 0.0219407 -0.04720034 0.060292624 -0.029813886 -0.06991853 -0.0331059 0.039811183 0.0144203175 -0.018989893 -0.05875189 -0.076897606 -0.0014074254 0.06813268 -0.037203513 -0.06620235 0.10017131 -0.028060304 0.0062513105 0.0018282064 0.040266305 0.08347236 0.029989516 0.013157808 0.0029547077 -0.0004578721 0.047318924
9 0.037154604 0.0141831655 0.021320315 0.0073548057 -0.04617046 0.025570367 0.0112495255 0.023502607 0.0035825786 -0.10094926 -0.026547836 0.0084082205 -0.01856587 -0.00874741 0.02703302 -0.052498028 0.077093735 0.011799122 0.0855286 0.0029871203 -0.041768637 0.015348642 -0.0135048665 0.02053227 -0.081182234 -0.009671622 0.0070859287 0.10816773 0.010595296 -0.09951878 -0.03379943 0.032221746 0.04730602 0.0025407933 -0.018633522 -0.10575956 -0.093412094 -0.040669817 -0.030538168 -0.061355207 -0.06665367 -0.099848606 -0.0029951814 0.0052563893 0.09926691 0.08803827 0.0326939 0.043537024 0.036006387 0.021902826 0.008067405 -0.05626839 0.017565934 -0.049627453 -0.0075126668 0.057429932 -0.017249122 0.00950537 -0.082528554 -0.01692069 0.0055334307 -0.047847915 -0.0429811 0.037579544 -0.014849441 0.0112715075 0.021777637 0.05453551 -0.06760097 0.042657234 0.006235008 -0.077607825 -0.023242772 0.024104785 0.088112995 -0.055057082 -0.027150774 -0.016257137 -0.038943175 -0.042556435 -0.014706737 0.002619719 -0.020326123 -0.006327679 0.011304695 -0.012757544 0.0479035 -0.005641155 -0.07945199 0.01931476 -0.06424181 -0.008561819 -0.03249608 -0.03071773 0.049494356 0.055442765 0.038683046 -0.028001789 0.12274402 0.03126616 0.01735335 0.042413093 0.027819417 0.05156408 -0.10220141 0.022451136 -0.00022482249 0.06661455 -0.019335516 -0.049328897 -0.031301036 -0.02150025 0.016747503 -0.07177867 -0.07377201 -0.08566547 -0.062137898 -0.042657256 0.09755469 0.011500724 -0.067747094 -0.07316865 0.046638727 0.052256264 0.049708158 -0.07883262 0.0043933447 0.016419515 -0.07935722 -0.01037694 0.056405317 0.019586634 -0.001826967 0.023711426 0.03923532 -0.016667543 0.020101015 0.054517247 0.08994126 -0.034733165 -0.08795112 -0.03485569 0.040174175 0.011290094 -0.04730123 0.014899216 -0.12930733 -0.058812015 -0.019224467 0.08575058 0.025002478 0.032795243 0.0005404304 0.04240238 0.045659866 0.048834007 0.0044343215 0.022594078 -0.010206733 0.033164844 -0.023638181 -0.0042675557 -0.030479763 -0.034026932 -0.07333546 -0.013867134 0.005748687 0.020367838 0.032400317 -0.027648533 0.01919096 -0.008803296 -0.10154371 0.08877291 0.044328246 0.065404765 0.013634505 0.017406257 -0.060128894 0.01928669 0.021343531 -0.010652791 0.034619823 0.013334121 0.011913951 0.041419536 -0.0044146283 -0.02009737 -0.05859864 0.13037512 0.09720774 -0.046866894 -0.08212406 0.07125101 -0.007196327 -0.053132925 0.013907267 -0.014748935 0.020132054 -0.049863264 0.020920325 0.09149059 0.10299232 -0.0056122136 0.03802737 -0.005812834 -0.09943284 -0.0025479505 -0.06823011 0.096021004 0.03975197 -0.031956773 0.113063596 -0.02517166 0.012693303 -0.06551294 0.012263757 -0.009557814 -0.05631384 -0.040691353 -0.0894377 0.065886766 0.01648302 -0.03415921 0.079281285 -0.044526134 0.061781824 0.018483551 -0.005148037 0.012934548 0.020601997 -0.044503465 0.029170517 0.035920214 0.028029898 0.0408524 0.037406143 -0.028600235 0.10873489 0.008037913 -0.004116557 -0.07108118 -0.026490025 0.03591105 0.031995986 -0.024187446 0.028965967 0.003671118 -0.0064722723 0.03393817 -0.08077217 0.07807084 0.041207917 0.073645085 -0.03323643 -0.029002387 0.06456725 0.073536664 0.00083241984 0.0030252216 0.024986738 0.013390199 -0.040309295 0.035778597 -0.028281583 -0.026412271 -0.0186026 0.044013437 0.041888807 -0.05232206 -0.08902215 -0.118383154 0.058216497 -0.05768738 0.12086136 -0.010489704 -0.044080943 -0.03424917 0.040680133 0.04676879 0.07372699 -0.045966037 0.021434048 0.05599876 0.026632132 0.041487206 0.034494225 -0.079784885 0.0109031275 -0.093486674 0.017332602 0.049441993 -0.05448959 -0.0008204829 -0.012412604 0.0143246045 -0.006930283 0.0777987 -0.01794116 -0.040643215 0.14294624 0.029777758 0.05462156 -0.0006827466 -0.04574786 -0.020148734 0.045982327 0.09130517 -0.066284314 0.030435033 -0.16355267 0.012511241 0.0043606283 0.08597306 0.0507855 0.032264363 0.1014501 0.06989976 -0.118601374 -0.0146574415 -0.02569844 -0.05264072 0.10571045 0.047836877 -0.11034026 -0.0017680783 0.035353277 -0.058256757 -0.07079808 -0.039839946 0.019818217 -0.0077027692 0.08449033 0.046318203 -0.060955428 -0.038064912 -0.053436186 0.031338155 -0.06504836 -0.039590463 0.0113569535 0.055871468 -0.037752118 -0.05212815 -0.016464828 -0.03860336 -0.03394166 -0.07009097 0.0030278722 0.015458243 -0.060237393 0.045784734 0.017009595 -0.014605179 0.025995197 -0.05034435 -0.010072691 0.06413747 -0.010748721 -0.013457903 0.067965604 -0.02112367 -0.08017309 -0.043675244 0.069682725 -0.0019902699 -0.016482258 -0.04779992 -0.05154122 -0.0044662505 0.072506875 -0.010713251 -0.0455666 0.0772118 -0.039008636 0.009765303 -0.034121234 0.02052874 0.08073601 0.021452298 0.012477286 0.00035848585 0.033209603 0.03333014
10 0.008736564 -0.007897262 0.01759515 -0.026495699 -0.054484215 0.030225417 0.036226436 0.016832331 -0.0061062956 -0.100695714 0.00365912 -0.0003116052 -0.008233825 -0.02141334 0.037660588 -0.041222446 0.09062029 0.026238007 0.030648615 0.003968522 -0.08450431 0.007917106 -0.018133352 0.01496337 -0.09336205 -0.019274734 0.006392307 0.092581004 -0.024560405 -0.095299736 0.008489528 0.041753035 -0.011581594 -0.014870076 -0.032157835 -0.112416066 -0.087851666 -0.034567434 -0.03262066 -0.082172096 -0.039039657 -0.061424557 0.003911053 -0.01675249 0.088026315 0.079393454 0.011691863 0.016635899 0.055097934 0.02801724 0.012726146 -0.06871273 0.0064503266 -0.05544195 -0.0016796159 0.057001688 0.0053887703 0.0054380246 -0.06296235 -0.0061304313 0.030455098 -0.02516904 0.0057675173 0.07779418 -0.017426183 -0.015386916 0.025873395 -0.0034991435 -0.043809284 0.03880467 0.008505743 -0.07997097 -0.057156935 -0.0025547026 0.09571396 -0.052077234 -0.030817961 -0.0065852185 -0.031088786 -0.06837163 -0.0024962495 0.0026780795 -0.029068368 -0.021658758 0.037607245 -0.009634283 0.0070859888 -0.011237734 -0.0989098 0.005446965 -0.072074994 -0.008062103 -0.01569943 -0.03250275 0.07530568 0.043789778 0.011146427 -0.03638801 0.16068396 0.03192016 -0.013964443 0.020902194 0.016593216 0.057897665 -0.09504908 0.024087101 0.00011112679 0.08896561 -0.014060858 -0.0267002 -0.035281714 0.0022581136 -2.0923117e-05 -0.072159074 -0.08990033 -0.057110243 -0.03426223 -0.0077127465 0.10339584 0.028097514 -0.0773165 -0.09927903 0.033341993 0.044344183 0.07218854 -0.07677992 -0.018648563 0.025178175 -0.06823689 -0.048234407 0.064143516 0.006425218 0.012364476 0.017214742 0.03777172 -0.03395879 -0.002570939 0.03635735 0.07080729 0.028035931 -0.0781607 -0.037019406 0.018442303 -0.0049641063 -0.05575418 0.024340965 -0.14252654 -0.08362692 -0.020848667 0.081793286 0.025484636 0.03468437 0.02144469 0.046224732 0.050083507 0.047570884 0.05071724 0.03450813 -0.032842845 0.006210599 -0.029337479 0.019062446 -0.041414764 -0.003598556 -0.03718554 -0.049690187 -0.016983531 0.031519677 0.009449527 -0.054557946 -0.015396665 -0.013077626 -0.11659617 0.053500988 0.048060812 0.064053446 -0.020830726 0.026356267 -0.07126555 0.010661231 0.024899978 -0.036572717 0.0056533213 0.055774476 0.02588616 0.030005023 -0.0257701 0.0039019398 -0.029097073 0.09780614 0.077167965 -0.044076495 -0.057899985 0.049539395 0.04678449 -0.043733753 -0.0017554545 -0.0006130334 0.07724978 -0.06096674 0.0034210763 0.10188516 0.09593502 -0.04877791 -0.019022403 0.008050807 -0.05520331 -0.048328992 -0.06404988 0.13167399 0.05239173 -0.01850377 0.074599326 -0.04091526 -0.012954389 -0.08324612 -0.033072148 -0.0017212635 -0.07270615 -0.007921657 -0.08351135 0.057061635 0.070818305 -0.027716964 0.031055309 -0.00861128 0.079512455 0.05436307 -0.018898772 0.013249042 0.05847634 -0.029585784 0.044540178 0.1245894 0.048279837 0.009673119 0.032684576 -0.025794387 0.09491023 -0.02528664 0.034941968 -0.035648208 -0.015606404 0.04452798 0.077765256 0.011858738 0.034388173 -0.009132624 0.011327052 0.028241897 -0.08180497 0.040129915 0.05522406 0.06982281 -0.0598983 -0.020534165 0.09016997 0.035954732 0.045916665 -0.0025907895 -0.029338755 0.011617124 -0.0510385 0.005697732 -0.02224215 0.016312664 -0.01795506 0.058110803 0.029507857 -0.058302354 -0.09764741 -0.05198078 0.017537883 -0.043887857 0.107635655 0.014479362 -0.02441641 -0.05060098 0.025827378 0.075322114 0.088539824 -0.038516466 -0.008118953 0.08895256 0.021012519 0.029292166 0.019172445 -0.0732048 0.018678647 -0.07946827 0.009569723 -0.02532259 -0.03690406 0.0018027892 0.02499258 0.045857884 0.025213778 0.007876433 0.010541352 -0.03021574 0.13457681 0.040870365 0.039370906 -0.027465904 -0.0464159 -0.030874455 0.0752753 0.100439355 -0.09435264 0.04165315 -0.19191207 0.0077475514 0.0030330801 0.08257874 0.01688531 0.02270001 0.10452841 0.066629335 -0.12271462 0.007725463 -0.01272229 -0.041851513 0.098594755 0.0698638 -0.11107512 0.025713699 0.034831975 -0.045315564 -0.08126821 -0.0017906738 0.019527307 -0.010122778 0.08089043 0.05156675 -0.056678366 -0.03972986 -0.054195955 0.051012114 -0.05193708 -0.0017358396 -0.021595092 0.04423406 -0.033453885 -0.009945108 -0.006937762 -0.01051025 -0.041716035 -0.037627794 0.026702566 -0.018876279 -0.030349962 0.015138437 -0.020609917 -0.013815703 -0.024362048 -0.013351749 -0.0062861764 0.062260028 -0.00052856526 -0.021048965 0.05956279 -0.04940889 -0.06439748 -0.028954448 0.052507777 -0.003837287 -0.044057596 -0.057834394 -0.06374546 -0.00515103 0.050505236 -0.037943687 -0.04683011 0.055295285 -0.0116758365 -0.025967028 -0.014411914 0.02369975 0.05089409 0.06831898 0.026584754 0.0074717673 0.020642383 0.05720357
11 0.015882833 0.015235954 0.02083413 -0.019656254 -0.052554887 0.026887251 0.029558664 0.0071297274 0.0009318688 -0.07802628 -0.015077768 0.03154913 -0.016674582 0.008633013 -0.00071565615 0.003560668 0.029677294 0.0045672776 0.03104152 -0.0023931155 -0.050781876 0.026033316 0.0064020567 0.028147915 -0.0762913 -0.006075309 -0.03137163 0.12177592 -0.0063776607 -0.093866706 -0.039081406 0.050784472 -0.0046601724 -0.015335772 0.011080874 -0.09229587 -0.08736839 -0.05571126 -0.041782703 -0.06478579 -0.058664043 -0.058878064 -0.024395559 0.0017313348 0.092942014 0.107123375 0.024890708 -0.0016809795 0.0462897 -0.002721801 -0.008586982 -0.048962962 -0.0055751083 -0.09306537 0.025999954 0.032469753 -0.018392136 -0.0059122536 -0.06675145 -0.007410899 0.022599995 -0.03510559 -0.016537527 0.041268412 -0.041359104 -0.0089545585 0.023867968 0.00590149 -0.03486862 -0.009523794 0.023223424 -0.054451797 -0.042067446 0.0054817544 0.055198833 -0.027638199 -0.013427231 -0.017235834 -0.021049919 -0.065219134 -0.038206067 -0.013083854 -0.019079497 -0.01970177 0.034979757 -0.0127113545 0.04326869 0.031204334 -0.10456176 0.080518395 -0.07127036 -0.03499952 -0.037535362 -0.01658794 0.06948847 0.0653374 0.05319845 -0.07280875 0.05197771 0.014764333 0.021237088 0.038890895 0.047715615 0.036921732 -0.12462399 0.03148947 -0.017973367 0.03484096 -0.005869613 -0.06507186 -0.03852436 0.024850989 0.0017820557 -0.04130233 -0.12911287 -0.10216247 -0.08626335 -0.05326674 0.11492283 0.041404482 -0.024977576 -0.100041024 0.08866585 0.05301382 0.06073563 -0.08774809 -0.03364875 0.00663064 -0.033035614 0.004351912 0.032607976 0.028410943 -0.014450071 -0.011458149 0.013183098 -0.00576132 -0.00041721505 0.04862091 0.04060813 -0.023440635 -0.090439685 -0.05817337 0.060955793 6.349596e-06 -0.0866388 0.02344959 -0.112305254 -0.058857772 -0.022721358 0.062213082 0.018225515 0.029286906 0.046067584 0.028853469 0.015971329 0.017845096 -0.035998143 0.048729282 0.0010038108 0.037742235 -0.04966977 -0.019612879 -0.037075866 -0.0543533 -0.070987195 -0.044157367 -0.050590746 0.01068191 0.04912096 -0.02666926 0.0035206412 -0.00081511855 -0.04588595 0.010908692 0.061056156 0.09820093 -0.004255908 0.03913504 -0.030975815 0.01909682 0.045729905 -0.020868467 0.021050274 0.063812114 0.039673913 0.023787916 -0.022158097 0.01830221 -0.055796657 0.104142494 0.0755187 -0.03604369 -0.041604165 0.017280087 0.0114989905 -0.0025081518 -0.019456768 0.045833398 0.043713104 -0.065213874 -0.019339887 0.087696955 0.06164254 -0.027490824 0.031787384 0.00307504 -0.067505166 -0.040907778 0.025041582 0.12567632 0.03508211 -0.03489752 0.10822792 -0.057462923 0.021613808 -0.07567422 0.011804649 0.019756291 -0.030068956 -0.029241016 -0.07732697 -0.000945725 0.09186603 -0.02324926 0.056208782 -0.025476633 0.07009352 0.0012057875 -0.00898072 0.019072404 0.018525515 -0.04447238 -0.0019620862 0.0672394 0.007936047 0.02584695 0.05954958 0.0061638267 0.1132967 -0.019492729 -0.017701162 -0.039884698 0.023861637 0.040555727 0.033266373 0.05440878 0.009088694 -0.013295463 -0.01091254 0.019048395 -0.08757039 0.115350366 0.049032323 0.068433486 -0.02905836 -0.040015467 0.092195034 0.098372445 0.044890292 0.001835402 0.008711819 -0.016281754 -0.029110907 -0.0067134034 -0.0041867117 -0.01157347 -0.01654202 0.06499213 0.015427411 -0.08492972 -0.09405611 -0.06748585 0.035825547 -0.030173207 0.13277966 0.02548735 -0.055141207 -0.070608005 0.015102801 0.052879456 0.07816824 -0.049777485 0.012929501 0.06460816 0.036144532 0.022555642 0.028840374 -0.07492574 -0.00678923 -0.101789884 -0.0029050785 -0.0045415442 -0.09979652 -0.0035457206 0.0067168935 0.012625596 0.013219885 0.01950563 0.0023762838 0.012916192 0.12643887 -0.0037277327 0.061025172 -0.045723043 -0.019103186 -0.027592298 0.041308817 0.11094483 -0.048881695 0.0015075079 -0.16306783 0.028125942 0.05244783 0.069575876 0.04039992 0.011149903 0.097514935 0.09924855 -0.097563416 0.00020295325 -0.004887817 0.0049195355 0.088285595 0.054752737 -0.1145381 0.019872244 0.047129754 -0.0075589637 -0.0913567 -0.04085251 0.00527432 -0.013268246 0.053439405 0.054999314 -0.05216703 0.0014435349 -0.05122033 0.07125175 -0.044711683 -0.0009511707 0.0011194113 0.049229555 -0.0030315674 -0.0013697296 -0.022612685 -0.04181297 -0.016191976 -0.045096137 0.055220887 0.043833606 -0.011298771 0.019626357 0.0067180516 0.0005018203 -0.055166036 -0.043654863 -0.03058051 0.07314663 0.040374618 -0.06392793 0.05265162 -0.051471185 -0.08668704 -0.033874266 0.0032431637 0.047441967 -0.037828866 -0.062460784 -0.10416754 -0.0055853394 0.07881954 -0.034371287 -0.051587943 0.09209047 -0.04188458 0.05687421 -0.0003481021 0.008636849 0.12046069 0.0028646663 -0.06327983 0.021192595 0.0290181 0.04265886
12 0.045429654 0.013910527 0.018851226 -0.00023870448 -0.03854268 -0.011815193 0.011945039 0.017767357 0.022975137 -0.08954464 -0.0028437895 -0.006510277 -0.020620652 0.00883512 0.014786208 -0.04462907 0.063522115 0.0041733645 0.07778844 0.032681275 0.0041155647 0.030357096 0.014011741 0.0011096862 -0.055076815 -0.013693026 -0.026461136 0.10065803 0.012273702 -0.0594967 -0.0024999753 0.06206179 0.08124095 -0.0044815466 -0.014622408 -0.10481445 -0.058992676 -0.012890353 -0.03706089 -0.08405722 -0.058114007 -0.07335616 -0.009086419 -0.012701705 0.1136895 0.08631576 0.041655745 0.02501809 0.037435915 -0.0114835985 -0.069550246 -0.071880005 0.00049365335 -0.045918953 0.010008905 0.014532329 -0.0025966084 -0.014343828 -0.074803695 -0.044455994 0.06530638 -0.07053254 -0.025936985 0.02363497 -0.01453804 0.009987027 0.038723942 0.03710679 -0.02585901 0.005492508 0.039014857 -0.08810462 -0.03244491 0.04678769 0.06769965 -0.057995055 -0.014226182 -0.040386837 -0.024591768 -0.018035252 -0.017703926 0.026793106 -0.02976562 -0.02655009 0.0020652402 0.0039042 0.03174069 0.0065711485 -0.11889531 0.03719421 -0.07512346 -0.03336744 0.0035639296 -0.034947902 0.07148637 0.038914762 0.025880516 -0.079844065 0.108906776 0.00081687 0.028515238 0.04476538 -0.0022098657 0.029218081 -0.08078762 0.016367007 -0.0055046557 0.10675749 0.01793942 -0.050669782 -0.029048113 0.037482627 -0.03759559 -0.07146669 -0.110049814 -0.07346718 -0.05612355 -0.041419495 0.10643738 0.02915952 -0.088382825 -0.11029162 0.032261845 0.020321945 0.1012918 -0.058519833 -0.03690596 0.01615879 -0.061315753 -0.039494175 0.057089917 -0.00087046163 0.022427727 0.03285937 0.029317396 -0.03224435 0.06266642 0.0327576 0.094626896 -0.025079682 -0.11004731 -0.016752124 0.016241426 -0.013856849 -0.0797842 0.014005163 -0.11680606 -0.10834835 -0.02016295 0.05270813 0.028583596 0.020379199 0.03456335 0.035509042 0.054045945 0.021768061 0.05129308 0.04636324 -0.02875312 0.03848023 -0.042503115 -0.013643497 -0.044818755 -0.0031939116 -0.08246263 -0.022686007 -0.039393008 -0.012507917 0.051519305 -0.022861343 -0.009039451 -0.038739763 -0.09678663 0.042610772 0.0109234415 0.092817724 -0.009159776 0.021538556 -0.025988929 0.010364931 0.020131774 -0.002384645 0.011593315 0.055780843 0.011234428 0.027092595 -0.015034072 -0.008075323 -0.07315083 0.094775885 0.1203548 -0.002669721 -0.027665094 0.067819916 0.010642655 -0.030213324 0.014535872 0.01898218 0.018561695 -0.06997503 0.012876363 0.08517426 0.06394318 -0.010065084 0.0039025638 -0.011029385 -0.10125736 0.012589591 -0.05190964 0.14119327 0.03236649 -0.016425192 0.07224518 -0.037149012 0.01466246 -0.09158516 -0.003080849 -0.0018228344 -0.051293604 -0.013633127 -0.087219454 0.013530941 -0.00894175 -0.024910921 0.015416432 -0.03623436 0.053703446 0.018919913 -0.0077407844 0.012450929 -0.001878665 -0.03372534 0.027400117 0.046374477 0.02152191 0.034864567 0.03793919 -0.036220863 0.06292382 0.022373427 0.005176463 -0.06419955 -0.045479003 0.014009939 0.015042899 -0.018528102 0.055287395 0.04489129 -0.0007070095 0.048412286 -0.061334144 0.08824849 0.06161907 0.03407042 -0.009226159 -0.023185086 0.057160247 0.07140755 0.027412025 -0.027256053 -0.012751922 -0.0017722348 -0.01832641 0.045698926 -0.03269369 -0.0009511295 -0.04782971 0.043434028 0.00054763583 -0.08755203 -0.045667633 -0.13559297 0.06511594 -0.039406285 0.110880375 0.0040546423 -0.03679024 -0.0559308 0.019471368 0.05829993 0.12367133 -0.014388009 0.046006948 0.061771143 -0.0015114417 0.013475346 0.029510308 -0.06358599 0.0012762485 -0.09058348 0.03298053 0.01773958 -0.08101587 -0.0023511436 0.039911766 0.038614087 0.010548039 0.04315218 0.020952126 -0.045036964 0.10831401 0.025595479 0.055409767 -0.034084383 0.0125638 -0.005585108 0.06439426 0.10846953 -0.053360812 0.021029452 -0.124996215 0.036765225 0.022205757 0.10427916 0.025438491 0.031246174 0.093779944 0.07740911 -0.11339394 0.0022168267 -0.0139496215 -0.043586593 0.09134246 0.052016754 -0.13269487 0.030673258 0.018911699 -0.029886266 -0.11678743 -0.039456405 0.024148012 -0.007078548 0.039399553 0.0683244 -0.062227953 -0.04553687 -0.03264516 0.03947293 -0.054029815 -0.011630237 0.022152394 0.050716005 -0.012466623 0.020202141 -0.0073324423 -0.041014794 -0.06688078 -0.045495637 0.03404699 0.027655154 -0.0360972 0.06570068 -0.019033747 0.01132232 -0.05333661 -0.03862862 -0.026761513 0.056009013 0.0003653363 -0.05111352 0.06522566 -0.062148705 -0.089602076 -0.03901515 0.032826472 0.018612735 -0.027024487 -0.05933397 -0.083771385 0.016596282 0.08655479 -0.013262969 -0.04164872 0.076477975 -0.036663815 0.028872635 -0.0070267026 0.025332678 0.099775724 0.03615977 0.016228706 -0.0016413674 -0.028175825 0.035486855
13 0.040744506 0.047686026 0.061100774 -0.012866045 -0.03917763 -0.018271003 -0.009492029 0.0054261135 0.0017087115 -0.08227904 -0.0007629351 0.049716275 0.037809186 0.009631914 0.022319505 -0.028340576 0.054545082 -0.0003167181 0.05642516 0.016006758 -0.0026489228 0.017950052 -0.0016936447 0.021994645 -0.0686482 -0.021365672 0.021070987 0.07836449 0.032110818 -0.0672776 -0.040820934 0.03305536 0.0029873902 -0.026347136 -0.008020889 -0.05777658 -0.055223316 -0.040451795 -0.018033996 -0.06800159 -0.057233147 -0.081994995 -0.01862673 0.0053726025 0.10715434 0.11234466 0.045486122 0.036297973 0.034204658 0.010330777 0.0040166015 -0.057935797 0.0608497 -0.074067034 -0.044458 -0.024028638 -0.014759537 0.0075938078 -0.07694504 -0.050396863 0.03172489 -0.080017455 0.0007471465 0.009932937 -0.04275633 0.014498966 0.018736234 -0.011692735 -0.031092595 0.0031627198 0.014520592 -0.06628233 -0.03611993 0.035511497 0.038528584 -0.065838285 0.0073768715 -0.023652302 -0.040916465 -0.030397724 0.0020604895 0.045758102 0.0018068759 -0.01788438 0.022927772 -0.035791695 0.053056803 0.03451705 -0.07594002 0.003986512 -0.043042753 0.002569254 -0.0038528286 -0.05474198 0.08987877 0.073490985 0.03799184 -0.06470483 0.0921974 0.013051425 0.02656886 0.02360484 0.021734329 0.035631567 -0.041617896 0.051446486 -0.020257963 0.05946819 0.050382726 -0.07590774 -0.008848921 -0.013983955 0.025777906 -0.026609847 -0.11701567 -0.10386494 -0.08679615 -0.037017312 0.10214014 0.03564396 -0.060118992 -0.11462323 0.06243539 0.031539027 0.048269987 -0.058571797 -0.018775133 0.011948262 -0.088817924 -0.013189768 0.02768057 0.00480855 -0.0016824538 -0.018307144 0.029006308 -0.012614498 0.022285698 0.011149675 0.04884365 -0.027217587 -0.11667434 -0.03666114 0.042621154 0.0037573504 -0.07616911 0.018357523 -0.123157315 -0.073436126 -0.023705536 0.057015467 0.04858157 0.019281758 0.05652244 0.02471979 0.061093576 0.043225095 0.0035825279 0.0062518506 -0.031857986 0.008945081 0.039214637 -0.032921392 -0.024359243 -0.03232712 -0.102633074 0.022583207 -0.04762193 -0.019598877 0.043351367 -0.031730324 0.014134444 -0.006830473 -0.103615955 0.08001471 0.07823375 0.10791403 -0.0014895629 0.022507107 -0.04280545 0.017126266 -0.04661457 -0.0074363723 -0.0072478475 0.01984501 -0.0013297483 0.021613777 0.021338554 -0.033558264 -0.07447655 0.13232674 0.12339519 -0.021923726 -0.033121917 0.0036625052 0.023593118 -0.0306886 -0.009010802 0.008986125 0.011409144 -0.043748662 -0.016372796 0.06376398 0.06152757 0.004214089 0.0018264719 -0.021433521 -0.12209071 -0.027714785 -0.07638081 0.07672457 0.08059429 -0.038282964 0.10961677 -0.0122600235 0.018056955 -0.08194933 -0.010124769 -0.051844597 -0.03626566 -0.0030459445 -0.10867606 0.060728177 0.04393918 -0.023493012 0.056976732 -0.060235284 0.08397663 0.02348957 0.033306714 0.037857596 0.011432983 -0.08838528 -0.020075684 0.063379295 0.010608455 0.004624427 0.0030491273 0.00071988744 0.09672053 -0.008514449 0.029987551 -0.04507456 -0.012305671 0.03677137 0.008053734 0.028770594 0.025633158 0.0018236869 -0.015552579 0.012960076 -0.07450255 0.07888528 0.01971298 0.059474945 -0.009952821 -0.040564153 0.08882913 0.061827853 0.04402737 -0.04358994 0.043400437 -0.0132932095 -0.01442827 0.0057674856 -0.025072353 -0.01864861 -0.034428816 0.04752043 0.023764746 -0.07724119 -0.03553433 -0.1343175 0.055715047 -0.06518764 0.11404112 -0.0035586965 -0.034183133 -0.005677613 0.020940017 0.072393075 0.08332137 0.0022054503 0.026714442 0.0339682 0.0061683124 0.009820764 0.017610887 -0.055315252 -0.0069159428 -0.12282124 0.028155338 0.044369597 -0.008841974 0.00014562631 0.005808763 0.03365585 0.0020573428 0.047587123 0.0002962085 -0.032237884 0.17599918 -0.0037316345 0.079534546 -0.06343372 0.022366883 -0.03016337 0.04927613 0.11368513 -0.0544972 0.016392345 -0.14487377 0.02835276 -0.010162343 0.13946451 0.0110641355 0.043155506 0.07744473 0.108199924 -0.11040773 0.005661719 -0.006093875 -0.016751733 0.07526525 0.028929662 -0.11791892 -0.047451273 0.012447818 -0.0063917367 -0.09452189 0.0067755138 0.0055351947 -0.038319077 0.02467338 0.027061746 -0.060534246 -0.020405851 -0.045849856 0.039316103 -0.03595407 -0.0007030081 0.017531633 0.03682291 -0.009365952 -0.03577216 0.01346559 -0.04445679 -0.030110562 -0.051816642 0.060082544 -0.0034244366 -0.043691456 0.06182745 -0.026254278 -0.027939353 -0.023347188 -0.032752234 0.00037550824 0.08464226 0.047370765 0.0039516143 0.06525222 -0.026366916 -0.047169924 -0.038534123 0.03903052 -0.011900386 -0.02413219 -0.082295276 -0.09123266 0.0091034435 0.0633119 -0.03430191 -0.041495442 0.12515545 -0.027628535 0.023117023 -0.01251806 0.01954691 0.066738024 0.034873985 -0.013210598 -0.004342966 -0.0062946877 0.025207624
